<?xml version="1.0"?>
<opencv_storage>
<cascade>
  <stageType>BOOST</stageType>
  <featureType>HAAR</featureType>
  <height>24</height>
  <width>24</width>
  <stageParams>
    <boostType>GAB</boostType>
    <minHitRate>9.9500000476837158e-01</minHitRate>
    <maxFalseAlarm>5.0000000000000000e-01</maxFalseAlarm>
    <weightTrimRate>9.4999998807907104e-01</weightTrimRate>
    <maxDepth>1</maxDepth>
    <maxWeakCount>100</maxWeakCount></stageParams>
  <featureParams>
    <maxCatCount>0</maxCatCount>
    <featSize>1</featSize>
    <mode>BASIC</mode></featureParams>
  <stageNum>14</stageNum>
  <stages>
    <!-- stage 0 -->
    <_>
      <maxWeakCount>15</maxWeakCount>
      <stageThreshold>-1.9234695434570313e+00</stageThreshold>
      <weakClassifiers>
        <_>
          <internalNodes>
            0 -1 372 1.6670733690261841e-02</internalNodes>
          <leafValues>
            -8.0215829610824585e-01 1.3436123728752136e-01</leafValues></_>
        <_>
          <internalNodes>
            0 -1 151 1.6031762957572937e-01</internalNodes>
          <leafValues>
            4.4193387031555176e-02 -8.1715130805969238e-01</leafValues></_>
        <_>
          <internalNodes>
            0 -1 17 -2.3810666054487228e-02</internalNodes>
          <leafValues>
            4.9655985832214355e-01 -3.1469431519508362e-01</leafValues></_>
        <_>
          <internalNodes>
            0 -1 30 -9.7109433263540268e-03</internalNodes>
          <leafValues>
            5.8646506071090698e-01 -2.0108266174793243e-01</leafValues></_>
        <_>
          <internalNodes>
            0 -1 159 6.9811736466363072e-04</internalNodes>
          <leafValues>
            -1.3411957025527954e-01 7.2866111993789673e-01</leafValues></_>
        <_>
          <internalNodes>
            0 -1 82 3.4375842660665512e-03</internalNodes>
          <leafValues>
            -1.3020022213459015e-01 6.7273795604705811e-01</leafValues></_>
        <_>
          <internalNodes>
            0 -1 264 6.7050597863271832e-04</internalNodes>
          <leafValues>
            -1.1562880873680115e-01 7.0407783985137939e-01</leafValues></_>
        <_>
          <internalNodes>
            0 -1 400 -2.7655239682644606e-03</internalNodes>
          <leafValues>
            5.8116483688354492e-01 -9.4600670039653778e-02</leafValues></_>
        <_>
          <internalNodes>
            0 -1 114 1.8505703192204237e-03</internalNodes>
          <leafValues>
            -1.1739663034677505e-01 6.7662411928176880e-01</leafValues></_>
        <_>
          <internalNodes>
            0 -1 115 6.6144636366516352e-04</internalNodes>
          <leafValues>
            -1.0646212100982666e-01 6.3094693422317505e-01</leafValues></_>
        <_>
          <internalNodes>
            0 -1 42 -7.5831990689039230e-03</internalNodes>
          <leafValues>
            -6.2198847532272339e-01 1.3139893114566803e-01</leafValues></_>
        <_>
          <internalNodes>
            0 -1 324 1.3441760092973709e-03</internalNodes>
          <leafValues>
            -1.3915053009986877e-01 5.7652264833450317e-01</leafValues></_>
        <_>
          <internalNodes>
            0 -1 262 7.0617720484733582e-04</internalNodes>
          <leafValues>
            -9.8276600241661072e-02 6.1159116029739380e-01</leafValues></_>
        <_>
          <internalNodes>
            0 -1 97 -1.1786218965426087e-03</internalNodes>
          <leafValues>
            -5.1442903280258179e-01 1.3920924067497253e-01</leafValues></_>
        <_>
          <internalNodes>
            0 -1 386 7.4534537270665169e-04</internalNodes>
          <leafValues>
            -1.6763277351856232e-01 4.3909543752670288e-01</leafValues></_></weakClassifiers></_>
    <!-- stage 1 -->
    <_>
      <maxWeakCount>20</maxWeakCount>
      <stageThreshold>-1.7743488550186157e+00</stageThreshold>
      <weakClassifiers>
        <_>
          <internalNodes>
            0 -1 37 -1.4672407880425453e-02</internalNodes>
          <leafValues>
            -6.3559319823980331e-03 -7.7645230293273926e-01</leafValues></_>
        <_>
          <internalNodes>
            0 -1 375 1.0481931269168854e-02</internalNodes>
          <leafValues>
            -4.6124693751335144e-01 2.5794136524200439e-01</leafValues></_>
        <_>
          <internalNodes>
            0 -1 198 -2.9028682038187981e-02</internalNodes>
          <leafValues>
            3.3076378703117371e-01 -2.7100765705108643e-01</leafValues></_>
        <_>
          <internalNodes>
            0 -1 337 -1.7070870846509933e-02</internalNodes>
          <leafValues>
            4.9138921499252319e-01 -1.5420265495777130e-01</leafValues></_>
        <_>
          <internalNodes>
            0 -1 144 -1.3292814791202545e-01</internalNodes>
          <leafValues>
            3.8743039965629578e-01 -1.8363562226295471e-01</leafValues></_>
        <_>
          <internalNodes>
            0 -1 67 1.7136344686150551e-02</internalNodes>
          <leafValues>
            1.2915270030498505e-01 -6.1880952119827271e-01</leafValues></_>
        <_>
          <internalNodes>
            0 -1 427 7.8329886309802532e-04</internalNodes>
          <leafValues>
            1.0561625659465790e-01 -5.8858543634414673e-01</leafValues></_>
        <_>
          <internalNodes>
            0 -1 106 -4.6617514453828335e-03</internalNodes>
          <leafValues>
            5.4512757062911987e-01 -1.0460428893566132e-01</leafValues></_>
        <_>
          <internalNodes>
            0 -1 83 -3.7725446745753288e-03</internalNodes>
          <leafValues>
            4.7327727079391479e-01 -1.2661401927471161e-01</leafValues></_>
        <_>
          <internalNodes>
            0 -1 51 -2.0398069173097610e-03</internalNodes>
          <leafValues>
            -4.9004817008972168e-01 1.2778981029987335e-01</leafValues></_>
        <_>
          <internalNodes>
            0 -1 347 2.0743517961818725e-04</internalNodes>
          <leafValues>
            1.8234799802303314e-01 -3.1140103936195374e-01</leafValues></_>
        <_>
          <internalNodes>
            0 -1 275 -2.0952647551894188e-02</internalNodes>
          <leafValues>
            3.2248070836067200e-01 -1.8869118392467499e-01</leafValues></_>
        <_>
          <internalNodes>
            0 -1 276 2.3498076945543289e-02</internalNodes>
          <leafValues>
            -1.0697859525680542e-01 5.1552975177764893e-01</leafValues></_>
        <_>
          <internalNodes>
            0 -1 362 -7.7095464803278446e-04</internalNodes>
          <leafValues>
            -3.4349188208580017e-01 1.7079338431358337e-01</leafValues></_>
        <_>
          <internalNodes>
            0 -1 23 3.3651127014309168e-03</internalNodes>
          <leafValues>
            -1.5368561446666718e-01 4.4785737991333008e-01</leafValues></_>
        <_>
          <internalNodes>
            0 -1 122 -2.2143545746803284e-01</internalNodes>
          <leafValues>
            3.6238247156143188e-01 -1.4516998827457428e-01</leafValues></_>
        <_>
          <internalNodes>
            0 -1 247 -3.0026145279407501e-02</internalNodes>
          <leafValues>
            4.7788420319557190e-01 -1.5190295875072479e-01</leafValues></_>
        <_>
          <internalNodes>
            0 -1 59 -8.8394153863191605e-03</internalNodes>
          <leafValues>
            4.6018525958061218e-01 -1.1087160557508469e-01</leafValues></_>
        <_>
          <internalNodes>
            0 -1 315 3.2817036844789982e-03</internalNodes>
          <leafValues>
            -1.6778078675270081e-01 3.3592405915260315e-01</leafValues></_>
        <_>
          <internalNodes>
            0 -1 424 -1.4645254239439964e-02</internalNodes>
          <leafValues>
            -7.3694968223571777e-01 8.2717016339302063e-02</leafValues></_></weakClassifiers></_>
    <!-- stage 2 -->
    <_>
      <maxWeakCount>24</maxWeakCount>
      <stageThreshold>-1.8974784612655640e+00</stageThreshold>
      <weakClassifiers>
        <_>
          <internalNodes>
            0 -1 403 2.1675277501344681e-02</internalNodes>
          <leafValues>
            -7.0290684700012207e-01 1.6473317146301270e-01</leafValues></_>
        <_>
          <internalNodes>
            0 -1 43 -6.1000557616353035e-03</internalNodes>
          <leafValues>
            1.7921169102191925e-01 -4.2500829696655273e-01</leafValues></_>
        <_>
          <internalNodes>
            0 -1 186 -1.8388275057077408e-02</internalNodes>
          <leafValues>
            -6.4303261041641235e-01 1.1083499342203140e-01</leafValues></_>
        <_>
          <internalNodes>
            0 -1 181 9.8536899313330650e-03</internalNodes>
          <leafValues>
            -2.6365655660629272e-01 2.7235126495361328e-01</leafValues></_>
        <_>
          <internalNodes>
            0 -1 268 2.0332052372395992e-03</internalNodes>
          <leafValues>
            -1.1280243843793869e-01 4.5023408532142639e-01</leafValues></_>
        <_>
          <internalNodes>
            0 -1 13 3.2621733844280243e-02</internalNodes>
          <leafValues>
            -1.1891860514879227e-01 4.3160030245780945e-01</leafValues></_>
        <_>
          <internalNodes>
            0 -1 384 2.2047865204513073e-03</internalNodes>
          <leafValues>
            -1.1128277331590652e-01 4.6520167589187622e-01</leafValues></_>
        <_>
          <internalNodes>
            0 -1 385 -2.9602402355521917e-03</internalNodes>
          <leafValues>
            4.5766255259513855e-01 -1.3222646713256836e-01</leafValues></_>
        <_>
          <internalNodes>
            0 -1 454 3.2631237991154194e-04</internalNodes>
          <leafValues>
            1.2874309718608856e-01 -4.5594939589500427e-01</leafValues></_>
        <_>
          <internalNodes>
            0 -1 437 -4.2750989086925983e-03</internalNodes>
          <leafValues>
            -3.9776900410652161e-01 1.3786882162094116e-01</leafValues></_>
        <_>
          <internalNodes>
            0 -1 448 -1.9775270484387875e-03</internalNodes>
          <leafValues>
            -5.5745303630828857e-01 1.0090744495391846e-01</leafValues></_>
        <_>
          <internalNodes>
            0 -1 285 -1.6888361424207687e-03</internalNodes>
          <leafValues>
            3.7811356782913208e-01 -1.3413801789283752e-01</leafValues></_>
        <_>
          <internalNodes>
            0 -1 65 -7.0752610918134451e-04</internalNodes>
          <leafValues>
            -5.1046133041381836e-01 9.6564210951328278e-02</leafValues></_>
        <_>
          <internalNodes>
            0 -1 233 -1.7885326815303415e-04</internalNodes>
          <leafValues>
            -2.9709973931312561e-01 1.5848679840564728e-01</leafValues></_>
        <_>
          <internalNodes>
            0 -1 180 -2.5518665090203285e-02</internalNodes>
          <leafValues>
            3.7498515844345093e-01 -1.3627572357654572e-01</leafValues></_>
        <_>
          <internalNodes>
            0 -1 342 7.0741688832640648e-03</internalNodes>
          <leafValues>
            -2.0570746064186096e-01 2.3974891006946564e-01</leafValues></_>
        <_>
          <internalNodes>
            0 -1 269 9.4106234610080719e-04</internalNodes>
          <leafValues>
            9.9237471818923950e-02 -4.9345427751541138e-01</leafValues></_>
        <_>
          <internalNodes>
            0 -1 269 -6.2623870326206088e-04</internalNodes>
          <leafValues>
            -4.4049060344696045e-01 1.0516617447137833e-01</leafValues></_>
        <_>
          <internalNodes>
            0 -1 246 -3.7817817647010088e-03</internalNodes>
          <leafValues>
            4.5856061577796936e-01 -1.2517888844013214e-01</leafValues></_>
        <_>
          <internalNodes>
            0 -1 249 2.4469173513352871e-03</internalNodes>
          <leafValues>
            -1.0088905692100525e-01 4.7150024771690369e-01</leafValues></_>
        <_>
          <internalNodes>
            0 -1 260 -1.5663977246731520e-03</internalNodes>
          <leafValues>
            4.3051216006278992e-01 -9.8098076879978180e-02</leafValues></_>
        <_>
          <internalNodes>
            0 -1 330 -1.3306895270943642e-03</internalNodes>
          <leafValues>
            -5.7639324665069580e-01 7.9175092279911041e-02</leafValues></_>
        <_>
          <internalNodes>
            0 -1 350 -3.1563472002744675e-03</internalNodes>
          <leafValues>
            3.2714551687240601e-01 -1.3178452849388123e-01</leafValues></_>
        <_>
          <internalNodes>
            0 -1 351 9.8123028874397278e-04</internalNodes>
          <leafValues>
            -1.2456361949443817e-01 3.3712366223335266e-01</leafValues></_></weakClassifiers></_>
    <!-- stage 3 -->
    <_>
      <maxWeakCount>24</maxWeakCount>
      <stageThreshold>-1.7409597635269165e+00</stageThreshold>
      <weakClassifiers>
        <_>
          <internalNodes>
            0 -1 135 1.4434849843382835e-02</internalNodes>
          <leafValues>
            -7.7267158031463623e-01 -3.1119790673255920e-01</leafValues></_>
        <_>
          <internalNodes>
            0 -1 379 1.2835212051868439e-02</internalNodes>
          <leafValues>
            -3.5162845253944397e-01 1.9798181951045990e-01</leafValues></_>
        <_>
          <internalNodes>
            0 -1 419 -5.0549721345305443e-04</internalNodes>
          <leafValues>
            -6.8426716327667236e-01 8.1419318914413452e-02</leafValues></_>
        <_>
          <internalNodes>
            0 -1 50 -7.2216931730508804e-03</internalNodes>
          <leafValues>
            2.7631056308746338e-01 -2.1188941597938538e-01</leafValues></_>
        <_>
          <internalNodes>
            0 -1 62 -5.1096919924020767e-04</internalNodes>
          <leafValues>
            -4.9282154440879822e-01 1.0230742394924164e-01</leafValues></_>
        <_>
          <internalNodes>
            0 -1 84 -5.5346605367958546e-03</internalNodes>
          <leafValues>
            2.8922066092491150e-01 -1.6865690052509308e-01</leafValues></_>
        <_>
          <internalNodes>
            0 -1 60 -7.5016840128228068e-04</internalNodes>
          <leafValues>
            -6.0863453149795532e-01 8.5857264697551727e-02</leafValues></_>
        <_>
          <internalNodes>
            0 -1 111 2.3803876247256994e-03</internalNodes>
          <leafValues>
            -1.1576339602470398e-01 4.2044889926910400e-01</leafValues></_>
        <_>
          <internalNodes>
            0 -1 411 3.7889831583015621e-04</internalNodes>
          <leafValues>
            1.2872038781642914e-01 -3.7137061357498169e-01</leafValues></_>
        <_>
          <internalNodes>
            0 -1 108 -3.0640877783298492e-02</internalNodes>
          <leafValues>
            3.5945993661880493e-01 -1.4360252022743225e-01</leafValues></_>
        <_>
          <internalNodes>
            0 -1 217 4.4856507331132889e-02</internalNodes>
          <leafValues>
            -1.5178196132183075e-01 3.2043260335922241e-01</leafValues></_>
        <_>
          <internalNodes>
            0 -1 136 5.5182455107569695e-03</internalNodes>
          <leafValues>
            -1.1911775916814804e-01 3.7859788537025452e-01</leafValues></_>
        <_>
          <internalNodes>
            0 -1 139 -2.3417037725448608e-01</internalNodes>
          <leafValues>
            3.9713656902313232e-01 -1.2213330715894699e-01</leafValues></_>
        <_>
          <internalNodes>
            0 -1 167 -5.4176929406821728e-03</internalNodes>
          <leafValues>
            3.6328402161598206e-01 -1.3438165187835693e-01</leafValues></_>
        <_>
          <internalNodes>
            0 -1 366 -2.4819612503051758e-02</internalNodes>
          <leafValues>
            4.3652430176734924e-01 -1.0786230862140656e-01</leafValues></_>
        <_>
          <internalNodes>
            0 -1 371 6.8603148683905602e-03</internalNodes>
          <leafValues>
            -1.5781655907630920e-01 3.1652665138244629e-01</leafValues></_>
        <_>
          <internalNodes>
            0 -1 439 -5.8720158413052559e-03</internalNodes>
          <leafValues>
            -5.2719312906265259e-01 9.9817961454391479e-02</leafValues></_>
        <_>
          <internalNodes>
            0 -1 248 -9.3775928020477295e-02</internalNodes>
          <leafValues>
            5.4921728372573853e-01 -1.1886172741651535e-01</leafValues></_>
        <_>
          <internalNodes>
            0 -1 280 -4.7534164041280746e-03</internalNodes>
          <leafValues>
            3.3195716142654419e-01 -1.4024400711059570e-01</leafValues></_>
        <_>
          <internalNodes>
            0 -1 137 2.1145718637853861e-03</internalNodes>
          <leafValues>
            6.7768923938274384e-02 -6.1979967355728149e-01</leafValues></_>
        <_>
          <internalNodes>
            0 -1 187 5.9720769058912992e-04</internalNodes>
          <leafValues>
            5.9580057859420776e-02 -7.1014469861984253e-01</leafValues></_>
        <_>
          <internalNodes>
            0 -1 168 1.7962273210287094e-02</internalNodes>
          <leafValues>
            -1.6535924375057220e-01 2.7942764759063721e-01</leafValues></_>
        <_>
          <internalNodes>
            0 -1 112 -8.4296171553432941e-04</internalNodes>
          <leafValues>
            3.6088719964027405e-01 -1.2062816321849823e-01</leafValues></_>
        <_>
          <internalNodes>
            0 -1 1 -1.2332116602919996e-04</internalNodes>
          <leafValues>
            -2.7458763122558594e-01 1.6327266395092010e-01</leafValues></_></weakClassifiers></_>
    <!-- stage 4 -->
    <_>
      <maxWeakCount>26</maxWeakCount>
      <stageThreshold>-1.7060484886169434e+00</stageThreshold>
      <weakClassifiers>
        <_>
          <internalNodes>
            0 -1 29 -1.5667730942368507e-02</internalNodes>
          <leafValues>
            -2.0053835213184357e-01 -7.0273602008819580e-01</leafValues></_>
        <_>
          <internalNodes>
            0 -1 338 1.9286461174488068e-02</internalNodes>
          <leafValues>
            -3.0111628770828247e-01 1.9505386054515839e-01</leafValues></_>
        <_>
          <internalNodes>
            0 -1 194 -2.1937545388936996e-02</internalNodes>
          <leafValues>
            1.6091209650039673e-01 -2.8738728165626526e-01</leafValues></_>
        <_>
          <internalNodes>
            0 -1 370 -8.1033697351813316e-03</internalNodes>
          <leafValues>
            3.2114177942276001e-01 -1.4755123853683472e-01</leafValues></_>
        <_>
          <internalNodes>
            0 -1 444 -4.0892437100410461e-03</internalNodes>
          <leafValues>
            -4.5620775222778320e-01 1.0165319591760635e-01</leafValues></_>
        <_>
          <internalNodes>
            0 -1 450 3.3711025025695562e-04</internalNodes>
          <leafValues>
            1.7231144011020660e-01 -4.0045586228370667e-01</leafValues></_>
        <_>
          <internalNodes>
            0 -1 251 -3.4218300133943558e-03</internalNodes>
          <leafValues>
            4.8162528872489929e-01 -1.0917069762945175e-01</leafValues></_>
        <_>
          <internalNodes>
            0 -1 66 -5.0849816761910915e-04</internalNodes>
          <leafValues>
            -3.4687542915344238e-01 1.4584036171436310e-01</leafValues></_>
        <_>
          <internalNodes>
            0 -1 92 1.4312355779111385e-03</internalNodes>
          <leafValues>
            -8.7448880076408386e-02 5.1004731655120850e-01</leafValues></_>
        <_>
          <internalNodes>
            0 -1 101 1.6533900052309036e-03</internalNodes>
          <leafValues>
            6.5406970679759979e-02 -6.7741960287094116e-01</leafValues></_>
        <_>
          <internalNodes>
            0 -1 226 -5.6487523019313812e-02</internalNodes>
          <leafValues>
            2.8872635960578918e-01 -1.5439310669898987e-01</leafValues></_>
        <_>
          <internalNodes>
            0 -1 453 1.1743330396711826e-03</internalNodes>
          <leafValues>
            1.0404393821954727e-01 -4.3692415952682495e-01</leafValues></_>
        <_>
          <internalNodes>
            0 -1 243 4.9414723180234432e-03</internalNodes>
          <leafValues>
            -1.0328315198421478e-01 4.7001260519027710e-01</leafValues></_>
        <_>
          <internalNodes>
            0 -1 204 -7.6289963908493519e-03</internalNodes>
          <leafValues>
            4.2657840251922607e-01 -1.0643093287944794e-01</leafValues></_>
        <_>
          <internalNodes>
            0 -1 44 -4.0990649722516537e-03</internalNodes>
          <leafValues>
            -6.6209536790847778e-01 7.4941858649253845e-02</leafValues></_>
        <_>
          <internalNodes>
            0 -1 454 -5.2686117123812437e-04</internalNodes>
          <leafValues>
            -4.7383177280426025e-01 8.4516651928424835e-02</leafValues></_>
        <_>
          <internalNodes>
            0 -1 113 1.0874979197978973e-03</internalNodes>
          <leafValues>
            -8.7537668645381927e-02 5.5308431386947632e-01</leafValues></_>
        <_>
          <internalNodes>
            0 -1 250 2.4742975365370512e-03</internalNodes>
          <leafValues>
            -7.2627559304237366e-02 5.5782806873321533e-01</leafValues></_>
        <_>
          <internalNodes>
            0 -1 32 -2.1732524037361145e-03</internalNodes>
          <leafValues>
            -3.8636335730552673e-01 1.1593092232942581e-01</leafValues></_>
        <_>
          <internalNodes>
            0 -1 93 -9.1103287413716316e-03</internalNodes>
          <leafValues>
            3.5407313704490662e-01 -1.2332885712385178e-01</leafValues></_>
        <_>
          <internalNodes>
            0 -1 3 -6.4444495365023613e-04</internalNodes>
          <leafValues>
            -2.9743638634681702e-01 1.5236219763755798e-01</leafValues></_>
        <_>
          <internalNodes>
            0 -1 413 -3.5495001357048750e-03</internalNodes>
          <leafValues>
            3.8004049658775330e-01 -1.1476238816976547e-01</leafValues></_>
        <_>
          <internalNodes>
            0 -1 235 -8.7803164497017860e-03</internalNodes>
          <leafValues>
            3.9352199435234070e-01 -1.0514927655458450e-01</leafValues></_>
        <_>
          <internalNodes>
            0 -1 156 6.8151289597153664e-03</internalNodes>
          <leafValues>
            -1.4700536429882050e-01 3.3145645260810852e-01</leafValues></_>
        <_>
          <internalNodes>
            0 -1 138 -2.5937277078628540e-01</internalNodes>
          <leafValues>
            2.8621897101402283e-01 -1.4441275596618652e-01</leafValues></_>
        <_>
          <internalNodes>
            0 -1 189 4.7619063407182693e-03</internalNodes>
          <leafValues>
            5.6804575026035309e-02 -6.8054437637329102e-01</leafValues></_></weakClassifiers></_>
    <!-- stage 5 -->
    <_>
      <maxWeakCount>34</maxWeakCount>
      <stageThreshold>-1.6694216728210449e+00</stageThreshold>
      <weakClassifiers>
        <_>
          <internalNodes>
            0 -1 34 -2.2206783294677734e-02</internalNodes>
          <leafValues>
            -3.2460734248161316e-01 -7.1921181678771973e-01</leafValues></_>
        <_>
          <internalNodes>
            0 -1 343 5.2530290558934212e-03</internalNodes>
          <leafValues>
            -4.2770689725875854e-01 6.3791207969188690e-02</leafValues></_>
        <_>
          <internalNodes>
            0 -1 78 -2.5465413928031921e-03</internalNodes>
          <leafValues>
            3.4554544091224670e-01 -1.3061298429965973e-01</leafValues></_>
        <_>
          <internalNodes>
            0 -1 425 -1.1444657575339079e-03</internalNodes>
          <leafValues>
            -4.9396672844886780e-01 9.1147266328334808e-02</leafValues></_>
        <_>
          <internalNodes>
            0 -1 28 -1.5949962660670280e-02</internalNodes>
          <leafValues>
            -4.0825119614601135e-01 1.2947562336921692e-01</leafValues></_>
        <_>
          <internalNodes>
            0 -1 160 -4.5895140618085861e-02</internalNodes>
          <leafValues>
            3.0502057075500488e-01 -1.4143852889537811e-01</leafValues></_>
        <_>
          <internalNodes>
            0 -1 35 -1.4696973375976086e-02</internalNodes>
          <leafValues>
            2.4776902794837952e-01 -1.7708712816238403e-01</leafValues></_>
        <_>
          <internalNodes>
            0 -1 68 -6.7956501152366400e-04</internalNodes>
          <leafValues>
            -4.2576107382774353e-01 8.8946007192134857e-02</leafValues></_>
        <_>
          <internalNodes>
            0 -1 178 2.7154055424034595e-03</internalNodes>
          <leafValues>
            -1.2068818509578705e-01 3.4861966967582703e-01</leafValues></_>
        <_>
          <internalNodes>
            0 -1 309 -2.1922101732343435e-03</internalNodes>
          <leafValues>
            2.9502078890800476e-01 -1.2797077000141144e-01</leafValues></_>
        <_>
          <internalNodes>
            0 -1 68 1.0566529817879200e-03</internalNodes>
          <leafValues>
            8.2022912800312042e-02 -4.6171450614929199e-01</leafValues></_>
        <_>
          <internalNodes>
            0 -1 381 8.0861631431616843e-05</internalNodes>
          <leafValues>
            1.1904791742563248e-01 -2.9896652698516846e-01</leafValues></_>
        <_>
          <internalNodes>
            0 -1 331 2.1008509793318808e-04</internalNodes>
          <leafValues>
            1.6744455695152283e-01 -2.5249135494232178e-01</leafValues></_>
        <_>
          <internalNodes>
            0 -1 147 -9.2601310461759567e-03</internalNodes>
          <leafValues>
            3.5937181115150452e-01 -1.0241017490625381e-01</leafValues></_>
        <_>
          <internalNodes>
            0 -1 240 3.2855742610991001e-03</internalNodes>
          <leafValues>
            -1.2461776286363602e-01 2.9599124193191528e-01</leafValues></_>
        <_>
          <internalNodes>
            0 -1 329 -7.5097975786775351e-04</internalNodes>
          <leafValues>
            -5.5179345607757568e-01 7.0460446178913116e-02</leafValues></_>
        <_>
          <internalNodes>
            0 -1 22 -1.1670903768390417e-03</internalNodes>
          <leafValues>
            4.1386365890502930e-01 -9.1288246214389801e-02</leafValues></_>
        <_>
          <internalNodes>
            0 -1 438 -2.3187804035842419e-03</internalNodes>
          <leafValues>
            -3.0620959401130676e-01 1.1410869657993317e-01</leafValues></_>
        <_>
          <internalNodes>
            0 -1 318 1.2775844894349575e-02</internalNodes>
          <leafValues>
            -1.6223105788230896e-01 2.3280213773250580e-01</leafValues></_>
        <_>
          <internalNodes>
            0 -1 319 1.8564043566584587e-03</internalNodes>
          <leafValues>
            8.9142866432666779e-02 -4.1518002748489380e-01</leafValues></_>
        <_>
          <internalNodes>
            0 -1 22 1.0323955211788416e-03</internalNodes>
          <leafValues>
            -1.0243497788906097e-01 3.9422845840454102e-01</leafValues></_>
        <_>
          <internalNodes>
            0 -1 334 -4.8139728605747223e-03</internalNodes>
          <leafValues>
            3.8597014546394348e-01 -8.9020133018493652e-02</leafValues></_>
        <_>
          <internalNodes>
            0 -1 335 4.0885154157876968e-04</internalNodes>
          <leafValues>
            -1.2713579833507538e-01 3.0700114369392395e-01</leafValues></_>
        <_>
          <internalNodes>
            0 -1 149 1.3364618644118309e-03</internalNodes>
          <leafValues>
            6.4797863364219666e-02 -6.1330181360244751e-01</leafValues></_>
        <_>
          <internalNodes>
            0 -1 454 1.6534290625713766e-04</internalNodes>
          <leafValues>
            9.8387099802494049e-02 -3.3159205317497253e-01</leafValues></_>
        <_>
          <internalNodes>
            0 -1 353 -5.9205754660069942e-03</internalNodes>
          <leafValues>
            2.1351708471775055e-01 -1.7117877304553986e-01</leafValues></_>
        <_>
          <internalNodes>
            0 -1 119 -1.6592312604188919e-02</internalNodes>
          <leafValues>
            2.5328668951988220e-01 -1.3854266703128815e-01</leafValues></_>
        <_>
          <internalNodes>
            0 -1 25 -4.4290842488408089e-03</internalNodes>
          <leafValues>
            2.2141568362712860e-01 -1.6407683491706848e-01</leafValues></_>
        <_>
          <internalNodes>
            0 -1 388 1.2954440899193287e-03</internalNodes>
          <leafValues>
            -1.2403673678636551e-01 3.1884685158729553e-01</leafValues></_>
        <_>
          <internalNodes>
            0 -1 441 6.1238737544044852e-04</internalNodes>
          <leafValues>
            9.8012231290340424e-02 -3.8506507873535156e-01</leafValues></_>
        <_>
          <internalNodes>
            0 -1 176 7.9729082062840462e-03</internalNodes>
          <leafValues>
            -1.1454451829195023e-01 3.3286094665527344e-01</leafValues></_>
        <_>
          <internalNodes>
            0 -1 41 -3.4613118041306734e-03</internalNodes>
          <leafValues>
            -4.3450197577476501e-01 7.8354582190513611e-02</leafValues></_>
        <_>
          <internalNodes>
            0 -1 163 -6.4793415367603302e-03</internalNodes>
          <leafValues>
            2.9785165190696716e-01 -1.1309304833412170e-01</leafValues></_>
        <_>
          <internalNodes>
            0 -1 356 -1.3996249435876962e-05</internalNodes>
          <leafValues>
            1.8884035944938660e-01 -1.6761773824691772e-01</leafValues></_></weakClassifiers></_>
    <!-- stage 6 -->
    <_>
      <maxWeakCount>35</maxWeakCount>
      <stageThreshold>-1.6212118864059448e+00</stageThreshold>
      <weakClassifiers>
        <_>
          <internalNodes>
            0 -1 407 -1.9100595964118838e-03</internalNodes>
          <leafValues>
            -1.2041884660720825e-01 -6.6862833499908447e-01</leafValues></_>
        <_>
          <internalNodes>
            0 -1 378 5.5733984336256981e-03</internalNodes>
          <leafValues>
            -3.3181220293045044e-01 9.1954536736011505e-02</leafValues></_>
        <_>
          <internalNodes>
            0 -1 391 -1.1233702534809709e-03</internalNodes>
          <leafValues>
            -5.6843435764312744e-01 6.3706435263156891e-02</leafValues></_>
        <_>
          <internalNodes>
            0 -1 50 -1.0540695860981941e-02</internalNodes>
          <leafValues>
            2.2190394997596741e-01 -1.6036528348922729e-01</leafValues></_>
        <_>
          <internalNodes>
            0 -1 407 1.5520565211772919e-03</internalNodes>
          <leafValues>
            -9.4835340976715088e-02 4.6773266792297363e-01</leafValues></_>
        <_>
          <internalNodes>
            0 -1 33 8.5448026657104492e-03</internalNodes>
          <leafValues>
            6.1907798051834106e-02 -5.7185697555541992e-01</leafValues></_>
        <_>
          <internalNodes>
            0 -1 301 -2.2936386521905661e-03</internalNodes>
          <leafValues>
            -4.2130199074745178e-01 1.0050563514232635e-01</leafValues></_>
        <_>
          <internalNodes>
            0 -1 131 -1.1391139123588800e-03</internalNodes>
          <leafValues>
            5.0054383277893066e-01 -7.5040169060230255e-02</leafValues></_>
        <_>
          <internalNodes>
            0 -1 64 -8.3853927208110690e-04</internalNodes>
          <leafValues>
            -4.2231553792953491e-01 8.1922702491283417e-02</leafValues></_>
        <_>
          <internalNodes>
            0 -1 69 -2.6437657652422786e-04</internalNodes>
          <leafValues>
            -1.9434429705142975e-01 1.8840593099594116e-01</leafValues></_>
        <_>
          <internalNodes>
            0 -1 117 -1.2198856566101313e-03</internalNodes>
          <leafValues>
            4.1781881451606750e-01 -9.2849157750606537e-02</leafValues></_>
        <_>
          <internalNodes>
            0 -1 452 3.4575251629576087e-04</internalNodes>
          <leafValues>
            9.3295536935329437e-02 -3.8723596930503845e-01</leafValues></_>
        <_>
          <internalNodes>
            0 -1 202 -1.4550673775374889e-02</internalNodes>
          <leafValues>
            5.6785607337951660e-01 -7.1286529302597046e-02</leafValues></_>
        <_>
          <internalNodes>
            0 -1 299 -2.0725340582430363e-03</internalNodes>
          <leafValues>
            2.6356786489486694e-01 -1.2042888253927231e-01</leafValues></_>
        <_>
          <internalNodes>
            0 -1 293 -2.6634135283529758e-03</internalNodes>
          <leafValues>
            -6.5099024772644043e-01 5.3943395614624023e-02</leafValues></_>
        <_>
          <internalNodes>
            0 -1 336 -6.3830486033111811e-04</internalNodes>
          <leafValues>
            3.7456008791923523e-01 -9.8363474011421204e-02</leafValues></_>
        <_>
          <internalNodes>
            0 -1 440 -2.7437747921794653e-03</internalNodes>
          <leafValues>
            -4.4054460525512695e-01 7.9937621951103210e-02</leafValues></_>
        <_>
          <internalNodes>
            0 -1 401 -9.7249925602227449e-04</internalNodes>
          <leafValues>
            3.3752569556236267e-01 -9.9362112581729889e-02</leafValues></_>
        <_>
          <internalNodes>
            0 -1 401 1.0453052818775177e-03</internalNodes>
          <leafValues>
            -9.0233564376831055e-02 3.9358204603195190e-01</leafValues></_>
        <_>
          <internalNodes>
            0 -1 64 3.0639761826023459e-04</internalNodes>
          <leafValues>
            1.1770981550216675e-01 -3.0682983994483948e-01</leafValues></_>
        <_>
          <internalNodes>
            0 -1 142 -1.3265210390090942e-01</internalNodes>
          <leafValues>
            3.2276779413223267e-01 -1.0771734267473221e-01</leafValues></_>
        <_>
          <internalNodes>
            0 -1 286 8.9966878294944763e-03</internalNodes>
          <leafValues>
            -7.5917750597000122e-02 4.0396252274513245e-01</leafValues></_>
        <_>
          <internalNodes>
            0 -1 312 1.0139825753867626e-03</internalNodes>
          <leafValues>
            -7.5802430510520935e-02 4.4676023721694946e-01</leafValues></_>
        <_>
          <internalNodes>
            0 -1 208 7.2521169204264879e-04</internalNodes>
          <leafValues>
            5.9386830776929855e-02 -6.5869295597076416e-01</leafValues></_>
        <_>
          <internalNodes>
            0 -1 185 -6.1800098046660423e-03</internalNodes>
          <leafValues>
            3.7038666009902954e-01 -9.6010982990264893e-02</leafValues></_>
        <_>
          <internalNodes>
            0 -1 229 1.4813134912401438e-03</internalNodes>
          <leafValues>
            -1.2026544660329819e-01 2.6339372992515564e-01</leafValues></_>
        <_>
          <internalNodes>
            0 -1 261 -5.6887600570917130e-02</internalNodes>
          <leafValues>
            2.2015173733234406e-01 -1.6190274059772491e-01</leafValues></_>
        <_>
          <internalNodes>
            0 -1 8 -1.5407476574182510e-02</internalNodes>
          <leafValues>
            2.9279518127441406e-01 -1.0882446914911270e-01</leafValues></_>
        <_>
          <internalNodes>
            0 -1 422 1.4697685837745667e-03</internalNodes>
          <leafValues>
            7.0092111825942993e-02 -4.7277465462684631e-01</leafValues></_>
        <_>
          <internalNodes>
            0 -1 365 3.1380457221530378e-04</internalNodes>
          <leafValues>
            1.2525647878646851e-01 -2.3060993850231171e-01</leafValues></_>
        <_>
          <internalNodes>
            0 -1 123 -4.3654903769493103e-02</internalNodes>
          <leafValues>
            2.7672410011291504e-01 -1.1607765406370163e-01</leafValues></_>
        <_>
          <internalNodes>
            0 -1 19 -2.8972197324037552e-02</internalNodes>
          <leafValues>
            -6.4861196279525757e-01 4.6608023345470428e-02</leafValues></_>
        <_>
          <internalNodes>
            0 -1 143 1.1841842904686928e-02</internalNodes>
          <leafValues>
            -9.0605624020099640e-02 3.6952337622642517e-01</leafValues></_>
        <_>
          <internalNodes>
            0 -1 12 4.0964666754007339e-02</internalNodes>
          <leafValues>
            5.1486957818269730e-02 -6.4554393291473389e-01</leafValues></_>
        <_>
          <internalNodes>
            0 -1 219 -3.9969985373318195e-03</internalNodes>
          <leafValues>
            2.9105788469314575e-01 -1.1479111015796661e-01</leafValues></_></weakClassifiers></_>
    <!-- stage 7 -->
    <_>
      <maxWeakCount>39</maxWeakCount>
      <stageThreshold>-1.6438390016555786e+00</stageThreshold>
      <weakClassifiers>
        <_>
          <internalNodes>
            0 -1 406 1.2471850961446762e-02</internalNodes>
          <leafValues>
            -6.9939577579498291e-01 -2.6811593770980835e-01</leafValues></_>
        <_>
          <internalNodes>
            0 -1 95 3.3952265977859497e-02</internalNodes>
          <leafValues>
            -3.2535216212272644e-01 1.2386493384838104e-01</leafValues></_>
        <_>
          <internalNodes>
            0 -1 54 1.0547449346631765e-03</internalNodes>
          <leafValues>
            9.6089296042919159e-02 -3.7933540344238281e-01</leafValues></_>
        <_>
          <internalNodes>
            0 -1 15 -1.5590447932481766e-02</internalNodes>
          <leafValues>
            3.4970992803573608e-01 -7.8695572912693024e-02</leafValues></_>
        <_>
          <internalNodes>
            0 -1 53 -6.7869527265429497e-04</internalNodes>
          <leafValues>
            -4.4122791290283203e-01 7.5717337429523468e-02</leafValues></_>
        <_>
          <internalNodes>
            0 -1 376 -4.6195188770070672e-04</internalNodes>
          <leafValues>
            3.5103973746299744e-01 -8.8778100907802582e-02</leafValues></_>
        <_>
          <internalNodes>
            0 -1 341 1.0528082493692636e-03</internalNodes>
          <leafValues>
            -1.6325537860393524e-01 2.5925013422966003e-01</leafValues></_>
        <_>
          <internalNodes>
            0 -1 53 -1.1516478480189107e-05</internalNodes>
          <leafValues>
            1.9348950684070587e-01 -1.5923729538917542e-01</leafValues></_>
        <_>
          <internalNodes>
            0 -1 270 8.7428913684561849e-04</internalNodes>
          <leafValues>
            6.8629443645477295e-02 -4.0159577131271362e-01</leafValues></_>
        <_>
          <internalNodes>
            0 -1 267 1.8141106702387333e-03</internalNodes>
          <leafValues>
            -8.0030523240566254e-02 4.0091520547866821e-01</leafValues></_>
        <_>
          <internalNodes>
            0 -1 431 1.1594159528613091e-02</internalNodes>
          <leafValues>
            6.0973960906267166e-02 -5.0510472059249878e-01</leafValues></_>
        <_>
          <internalNodes>
            0 -1 245 3.9763278327882290e-03</internalNodes>
          <leafValues>
            -7.5311712920665741e-02 4.6098908782005310e-01</leafValues></_>
        <_>
          <internalNodes>
            0 -1 5 2.6354747824370861e-03</internalNodes>
          <leafValues>
            9.1872386634349823e-02 -3.9327380061149597e-01</leafValues></_>
        <_>
          <internalNodes>
            0 -1 75 -1.0252282663714141e-04</internalNodes>
          <leafValues>
            -1.9658668339252472e-01 1.5947619080543518e-01</leafValues></_>
        <_>
          <internalNodes>
            0 -1 311 2.9481505975127220e-02</internalNodes>
          <leafValues>
            -1.4482341706752777e-01 2.0261169970035553e-01</leafValues></_>
        <_>
          <internalNodes>
            0 -1 414 2.0059183239936829e-02</internalNodes>
          <leafValues>
            6.5457180142402649e-02 -4.9359244108200073e-01</leafValues></_>
        <_>
          <internalNodes>
            0 -1 291 -7.4648053850978613e-04</internalNodes>
          <leafValues>
            -7.0166289806365967e-01 3.3291734755039215e-02</leafValues></_>
        <_>
          <internalNodes>
            0 -1 257 -8.2601960748434067e-03</internalNodes>
          <leafValues>
            2.9187729954719543e-01 -1.1601085215806961e-01</leafValues></_>
        <_>
          <internalNodes>
            0 -1 271 3.4259757376275957e-04</internalNodes>
          <leafValues>
            1.1132124811410904e-01 -2.7296698093414307e-01</leafValues></_>
        <_>
          <internalNodes>
            0 -1 349 -2.1581808105111122e-03</internalNodes>
          <leafValues>
            3.1667411327362061e-01 -9.9311515688896179e-02</leafValues></_>
        <_>
          <internalNodes>
            0 -1 259 -6.6504336427897215e-04</internalNodes>
          <leafValues>
            -2.4053020775318146e-01 1.3815192878246307e-01</leafValues></_>
        <_>
          <internalNodes>
            0 -1 161 -8.7966389954090118e-02</internalNodes>
          <leafValues>
            3.7908092141151428e-01 -8.8279224932193756e-02</leafValues></_>
        <_>
          <internalNodes>
            0 -1 115 1.5179951442405581e-03</internalNodes>
          <leafValues>
            -5.0946239382028580e-02 5.7053530216217041e-01</leafValues></_>
        <_>
          <internalNodes>
            0 -1 115 -7.9719990026205778e-04</internalNodes>
          <leafValues>
            3.7400621175765991e-01 -8.8613018393516541e-02</leafValues></_>
        <_>
          <internalNodes>
            0 -1 174 -1.3979359064251184e-03</internalNodes>
          <leafValues>
            2.6453888416290283e-01 -1.0562586039304733e-01</leafValues></_>
        <_>
          <internalNodes>
            0 -1 426 -8.9639169164001942e-04</internalNodes>
          <leafValues>
            -5.6212705373764038e-01 5.0141450017690659e-02</leafValues></_>
        <_>
          <internalNodes>
            0 -1 157 -7.2883721441030502e-04</internalNodes>
          <leafValues>
            3.7357735633850098e-01 -8.6307905614376068e-02</leafValues></_>
        <_>
          <internalNodes>
            0 -1 211 4.7883815132081509e-03</internalNodes>
          <leafValues>
            6.2042310833930969e-02 -4.7845989465713501e-01</leafValues></_>
        <_>
          <internalNodes>
            0 -1 320 7.0429791230708361e-04</internalNodes>
          <leafValues>
            -8.4102198481559753e-02 3.6450913548469543e-01</leafValues></_>
        <_>
          <internalNodes>
            0 -1 266 -2.8928597457706928e-03</internalNodes>
          <leafValues>
            3.5441121459007263e-01 -7.4905350804328918e-02</leafValues></_>
        <_>
          <internalNodes>
            0 -1 102 -2.7230130508542061e-03</internalNodes>
          <leafValues>
            -6.6782301664352417e-01 4.3226886540651321e-02</leafValues></_>
        <_>
          <internalNodes>
            0 -1 317 -1.0957680642604828e-02</internalNodes>
          <leafValues>
            2.2407589852809906e-01 -1.2322708219289780e-01</leafValues></_>
        <_>
          <internalNodes>
            0 -1 447 -5.0328404176980257e-04</internalNodes>
          <leafValues>
            -3.5732838511466980e-01 8.4482148289680481e-02</leafValues></_>
        <_>
          <internalNodes>
            0 -1 278 1.5398745890706778e-03</internalNodes>
          <leafValues>
            -8.0912046134471893e-02 3.6040252447128296e-01</leafValues></_>
        <_>
          <internalNodes>
            0 -1 310 -1.4234022237360477e-03</internalNodes>
          <leafValues>
            1.4500856399536133e-01 -1.8874937295913696e-01</leafValues></_>
        <_>
          <internalNodes>
            0 -1 238 -5.5357520468533039e-03</internalNodes>
          <leafValues>
            2.9278165102005005e-01 -9.9893182516098022e-02</leafValues></_>
        <_>
          <internalNodes>
            0 -1 141 -9.8124861717224121e-02</internalNodes>
          <leafValues>
            4.2342481017112732e-01 -7.4869647622108459e-02</leafValues></_>
        <_>
          <internalNodes>
            0 -1 327 -2.3496008943766356e-03</internalNodes>
          <leafValues>
            -3.7520554661750793e-01 7.5947269797325134e-02</leafValues></_>
        <_>
          <internalNodes>
            0 -1 288 1.4258124865591526e-02</internalNodes>
          <leafValues>
            -5.5022895336151123e-02 5.8676546812057495e-01</leafValues></_></weakClassifiers></_>
    <!-- stage 8 -->
    <_>
      <maxWeakCount>44</maxWeakCount>
      <stageThreshold>-1.6461853981018066e+00</stageThreshold>
      <weakClassifiers>
        <_>
          <internalNodes>
            0 -1 39 -1.9056912511587143e-02</internalNodes>
          <leafValues>
            -4.0501320362091064e-01 -7.2655296325683594e-01</leafValues></_>
        <_>
          <internalNodes>
            0 -1 52 6.8501792848110199e-03</internalNodes>
          <leafValues>
            -3.3865040540695190e-01 5.2997659891843796e-02</leafValues></_>
        <_>
          <internalNodes>
            0 -1 397 1.3816869817674160e-02</internalNodes>
          <leafValues>
            -1.3274826109409332e-01 2.3945593833923340e-01</leafValues></_>
        <_>
          <internalNodes>
            0 -1 357 -7.5628771446645260e-04</internalNodes>
          <leafValues>
            -4.0322205424308777e-01 7.5674325227737427e-02</leafValues></_>
        <_>
          <internalNodes>
            0 -1 85 -1.6062048962339759e-03</internalNodes>
          <leafValues>
            4.5100975036621094e-01 -3.5632107406854630e-02</leafValues></_>
        <_>
          <internalNodes>
            0 -1 295 -7.1571424603462219e-02</internalNodes>
          <leafValues>
            3.1208670139312744e-01 -9.2558987438678741e-02</leafValues></_>
        <_>
          <internalNodes>
            0 -1 277 -1.7599660903215408e-02</internalNodes>
          <leafValues>
            1.9592010974884033e-01 -1.4110888540744781e-01</leafValues></_>
        <_>
          <internalNodes>
            0 -1 449 -1.1456813663244247e-03</internalNodes>
          <leafValues>
            -3.1441268324851990e-01 8.4119185805320740e-02</leafValues></_>
        <_>
          <internalNodes>
            0 -1 316 -1.3269886374473572e-02</internalNodes>
          <leafValues>
            2.7811375260353088e-01 -1.1503987759351730e-01</leafValues></_>
        <_>
          <internalNodes>
            0 -1 344 4.9152458086609840e-04</internalNodes>
          <leafValues>
            -1.4747372269630432e-01 2.5520592927932739e-01</leafValues></_>
        <_>
          <internalNodes>
            0 -1 411 -1.9651907496154308e-03</internalNodes>
          <leafValues>
            -6.6525232791900635e-01 7.2099126875400543e-02</leafValues></_>
        <_>
          <internalNodes>
            0 -1 428 -1.1444598385423888e-05</internalNodes>
          <leafValues>
            1.9567036628723145e-01 -1.4967060089111328e-01</leafValues></_>
        <_>
          <internalNodes>
            0 -1 203 -3.5468950867652893e-02</internalNodes>
          <leafValues>
            3.1315639615058899e-01 -9.9065452814102173e-02</leafValues></_>
        <_>
          <internalNodes>
            0 -1 21 1.0573910176753998e-01</internalNodes>
          <leafValues>
            9.5089927315711975e-02 -3.2198750972747803e-01</leafValues></_>
        <_>
          <internalNodes>
            0 -1 18 1.1628760024905205e-02</internalNodes>
          <leafValues>
            4.2663298547267914e-02 -7.2355860471725464e-01</leafValues></_>
        <_>
          <internalNodes>
            0 -1 94 -1.5797311207279563e-03</internalNodes>
          <leafValues>
            -3.0501601099967957e-01 7.8458309173583984e-02</leafValues></_>
        <_>
          <internalNodes>
            0 -1 96 -8.2832889165729284e-04</internalNodes>
          <leafValues>
            -4.8979386687278748e-01 5.8370295912027359e-02</leafValues></_>
        <_>
          <internalNodes>
            0 -1 164 -6.6942709963768721e-04</internalNodes>
          <leafValues>
            3.1769520044326782e-01 -9.8911106586456299e-02</leafValues></_>
        <_>
          <internalNodes>
            0 -1 115 1.6812415560707450e-04</internalNodes>
          <leafValues>
            -1.2163100391626358e-01 2.2707735002040863e-01</leafValues></_>
        <_>
          <internalNodes>
            0 -1 420 5.6835844588931650e-05</internalNodes>
          <leafValues>
            1.2526793777942657e-01 -2.3777197301387787e-01</leafValues></_>
        <_>
          <internalNodes>
            0 -1 297 1.9463440403342247e-03</internalNodes>
          <leafValues>
            -8.9738436043262482e-02 3.1306055188179016e-01</leafValues></_>
        <_>
          <internalNodes>
            0 -1 441 -8.1997271627187729e-04</internalNodes>
          <leafValues>
            -4.5003345608711243e-01 5.7923112064599991e-02</leafValues></_>
        <_>
          <internalNodes>
            0 -1 192 9.2877040151506662e-04</internalNodes>
          <leafValues>
            -6.6820055246353149e-02 4.0045362710952759e-01</leafValues></_>
        <_>
          <internalNodes>
            0 -1 0 -2.7019024128094316e-04</internalNodes>
          <leafValues>
            -2.1479982137680054e-01 1.2527239322662354e-01</leafValues></_>
        <_>
          <internalNodes>
            0 -1 80 -4.8217652365565300e-03</internalNodes>
          <leafValues>
            3.7544846534729004e-01 -7.3810733854770660e-02</leafValues></_>
        <_>
          <internalNodes>
            0 -1 216 3.2650413922965527e-03</internalNodes>
          <leafValues>
            -9.4682253897190094e-02 2.7415895462036133e-01</leafValues></_>
        <_>
          <internalNodes>
            0 -1 71 1.2576328590512276e-03</internalNodes>
          <leafValues>
            5.1208626478910446e-02 -5.4659223556518555e-01</leafValues></_>
        <_>
          <internalNodes>
            0 -1 377 -6.7262747325003147e-04</internalNodes>
          <leafValues>
            2.4523906409740448e-01 -1.1727730929851532e-01</leafValues></_>
        <_>
          <internalNodes>
            0 -1 408 1.3386906357482076e-03</internalNodes>
          <leafValues>
            -5.8003272861242294e-02 4.5497485995292664e-01</leafValues></_>
        <_>
          <internalNodes>
            0 -1 436 -2.7397780213505030e-03</internalNodes>
          <leafValues>
            -4.0692093968391418e-01 6.6718526184558868e-02</leafValues></_>
        <_>
          <internalNodes>
            0 -1 274 -7.5659379363059998e-02</internalNodes>
          <leafValues>
            1.8477223813533783e-01 -1.3897506892681122e-01</leafValues></_>
        <_>
          <internalNodes>
            0 -1 371 1.1004289612174034e-02</internalNodes>
          <leafValues>
            -1.0656135529279709e-01 2.7925673127174377e-01</leafValues></_>
        <_>
          <internalNodes>
            0 -1 383 -8.6779496632516384e-04</internalNodes>
          <leafValues>
            2.1592755615711212e-01 -1.3594053685665131e-01</leafValues></_>
        <_>
          <internalNodes>
            0 -1 294 -7.9372286563739181e-05</internalNodes>
          <leafValues>
            -1.9944909214973450e-01 1.3284963369369507e-01</leafValues></_>
        <_>
          <internalNodes>
            0 -1 294 6.3819694332778454e-04</internalNodes>
          <leafValues>
            1.3920269906520844e-01 -2.3179168999195099e-01</leafValues></_>
        <_>
          <internalNodes>
            0 -1 305 5.9059751220047474e-04</internalNodes>
          <leafValues>
            -1.1181998997926712e-01 2.3083442449569702e-01</leafValues></_>
        <_>
          <internalNodes>
            0 -1 428 -5.6735170073807240e-04</internalNodes>
          <leafValues>
            -5.5378252267837524e-01 4.8694420605897903e-02</leafValues></_>
        <_>
          <internalNodes>
            0 -1 421 9.3668717890977859e-03</internalNodes>
          <leafValues>
            -6.6060431301593781e-02 4.4578367471694946e-01</leafValues></_>
        <_>
          <internalNodes>
            0 -1 47 -2.5099676102399826e-02</internalNodes>
          <leafValues>
            2.1473094820976257e-01 -1.1779736727476120e-01</leafValues></_>
        <_>
          <internalNodes>
            0 -1 190 7.8909873962402344e-02</internalNodes>
          <leafValues>
            3.7875253707170486e-02 -7.2505033016204834e-01</leafValues></_>
        <_>
          <internalNodes>
            0 -1 183 -1.4212936162948608e-02</internalNodes>
          <leafValues>
            4.3340641260147095e-01 -6.4391560852527618e-02</leafValues></_>
        <_>
          <internalNodes>
            0 -1 173 7.7865581260994077e-04</internalNodes>
          <leafValues>
            -7.9811215400695801e-02 3.0849522352218628e-01</leafValues></_>
        <_>
          <internalNodes>
            0 -1 120 2.9946067370474339e-03</internalNodes>
          <leafValues>
            4.3093040585517883e-02 -6.5674781799316406e-01</leafValues></_>
        <_>
          <internalNodes>
            0 -1 184 4.4064414687454700e-03</internalNodes>
          <leafValues>
            -1.1153889447450638e-01 2.7175545692443848e-01</leafValues></_></weakClassifiers></_>
    <!-- stage 9 -->
    <_>
      <maxWeakCount>49</maxWeakCount>
      <stageThreshold>-1.6112697124481201e+00</stageThreshold>
      <weakClassifiers>
        <_>
          <internalNodes>
            0 -1 314 1.3848829083144665e-02</internalNodes>
          <leafValues>
            -7.5031846761703491e-01 -5.0429445505142212e-01</leafValues></_>
        <_>
          <internalNodes>
            0 -1 213 -3.2760366797447205e-02</internalNodes>
          <leafValues>
            1.1944796890020370e-01 -2.5782713294029236e-01</leafValues></_>
        <_>
          <internalNodes>
            0 -1 451 -1.2897276319563389e-03</internalNodes>
          <leafValues>
            -3.8150438666343689e-01 8.5580438375473022e-02</leafValues></_>
        <_>
          <internalNodes>
            0 -1 325 -1.3637458905577660e-02</internalNodes>
          <leafValues>
            2.1632000803947449e-01 -1.3467308878898621e-01</leafValues></_>
        <_>
          <internalNodes>
            0 -1 358 -4.7805957728996873e-04</internalNodes>
          <leafValues>
            -3.0902561545372009e-01 1.3879191875457764e-01</leafValues></_>
        <_>
          <internalNodes>
            0 -1 358 1.1136934626847506e-03</internalNodes>
          <leafValues>
            7.7287793159484863e-02 -4.1515699028968811e-01</leafValues></_>
        <_>
          <internalNodes>
            0 -1 50 -1.2969709001481533e-02</internalNodes>
          <leafValues>
            1.8655651807785034e-01 -1.7939114570617676e-01</leafValues></_>
        <_>
          <internalNodes>
            0 -1 7 1.0155853629112244e-01</internalNodes>
          <leafValues>
            -8.0359920859336853e-02 3.4867766499519348e-01</leafValues></_>
        <_>
          <internalNodes>
            0 -1 172 -3.2883351668715477e-03</internalNodes>
          <leafValues>
            2.7301084995269775e-01 -1.0084715485572815e-01</leafValues></_>
        <_>
          <internalNodes>
            0 -1 363 1.7651540110819042e-04</internalNodes>
          <leafValues>
            1.2406976521015167e-01 -2.3381309211254120e-01</leafValues></_>
        <_>
          <internalNodes>
            0 -1 394 -1.2427589390426874e-03</internalNodes>
          <leafValues>
            -3.6043721437454224e-01 7.9934820532798767e-02</leafValues></_>
        <_>
          <internalNodes>
            0 -1 265 4.6251304447650909e-03</internalNodes>
          <leafValues>
            -8.5994705557823181e-02 3.7438225746154785e-01</leafValues></_>
        <_>
          <internalNodes>
            0 -1 367 -2.6092417538166046e-03</internalNodes>
          <leafValues>
            4.3321216106414795e-01 -6.2077268958091736e-02</leafValues></_>
        <_>
          <internalNodes>
            0 -1 214 -3.0599660240113735e-03</internalNodes>
          <leafValues>
            2.3801377415657043e-01 -1.0650505125522614e-01</leafValues></_>
        <_>
          <internalNodes>
            0 -1 70 -9.3894870951771736e-03</internalNodes>
          <leafValues>
            -3.3577939867973328e-01 8.0555975437164307e-02</leafValues></_>
        <_>
          <internalNodes>
            0 -1 150 1.2318238150328398e-03</internalNodes>
          <leafValues>
            1.3020776212215424e-01 -1.9405685365200043e-01</leafValues></_>
        <_>
          <internalNodes>
            0 -1 81 -3.4486809745430946e-03</internalNodes>
          <leafValues>
            2.8732734918594360e-01 -8.9241184294223785e-02</leafValues></_>
        <_>
          <internalNodes>
            0 -1 89 3.3195693977177143e-03</internalNodes>
          <leafValues>
            -1.0551526397466660e-01 2.8015404939651489e-01</leafValues></_>
        <_>
          <internalNodes>
            0 -1 449 -2.3372732102870941e-03</internalNodes>
          <leafValues>
            -3.8681831955909729e-01 6.7250952124595642e-02</leafValues></_>
        <_>
          <internalNodes>
            0 -1 206 1.1691361665725708e-02</internalNodes>
          <leafValues>
            -1.5554769337177277e-01 1.8106961250305176e-01</leafValues></_>
        <_>
          <internalNodes>
            0 -1 387 -2.3060644161887467e-04</internalNodes>
          <leafValues>
            2.3401977121829987e-01 -1.1709849536418915e-01</leafValues></_>
        <_>
          <internalNodes>
            0 -1 6 1.1881478130817413e-02</internalNodes>
          <leafValues>
            5.9061769396066666e-02 -4.7345644235610962e-01</leafValues></_>
        <_>
          <internalNodes>
            0 -1 306 1.4676027931272984e-03</internalNodes>
          <leafValues>
            -8.5491061210632324e-02 3.4943893551826477e-01</leafValues></_>
        <_>
          <internalNodes>
            0 -1 289 -4.5758364722132683e-03</internalNodes>
          <leafValues>
            -5.5450224876403809e-01 4.9751810729503632e-02</leafValues></_>
        <_>
          <internalNodes>
            0 -1 313 -2.8390984982252121e-02</internalNodes>
          <leafValues>
            2.8944849967956543e-01 -9.1687470674514771e-02</leafValues></_>
        <_>
          <internalNodes>
            0 -1 416 -1.3423919677734375e-02</internalNodes>
          <leafValues>
            -7.9158079624176025e-01 3.6824136972427368e-02</leafValues></_>
        <_>
          <internalNodes>
            0 -1 53 -4.5261479681357741e-04</internalNodes>
          <leafValues>
            -3.4305331110954285e-01 6.6718891263008118e-02</leafValues></_>
        <_>
          <internalNodes>
            0 -1 354 -3.9528723573312163e-04</internalNodes>
          <leafValues>
            2.4893876910209656e-01 -1.1154966056346893e-01</leafValues></_>
        <_>
          <internalNodes>
            0 -1 395 -7.9708296107128263e-04</internalNodes>
          <leafValues>
            -2.8960198163986206e-01 8.9894264936447144e-02</leafValues></_>
        <_>
          <internalNodes>
            0 -1 409 -1.0446005944686476e-05</internalNodes>
          <leafValues>
            1.7257013916969299e-01 -1.4913442730903625e-01</leafValues></_>
        <_>
          <internalNodes>
            0 -1 355 -6.6207153722643852e-03</internalNodes>
          <leafValues>
            6.2574738264083862e-01 -4.5077987015247345e-02</leafValues></_>
        <_>
          <internalNodes>
            0 -1 296 -4.9256481230258942e-02</internalNodes>
          <leafValues>
            1.4376708865165710e-01 -1.7391303181648254e-01</leafValues></_>
        <_>
          <internalNodes>
            0 -1 76 5.4634496569633484e-02</internalNodes>
          <leafValues>
            -8.8577829301357269e-02 3.2818037271499634e-01</leafValues></_>
        <_>
          <internalNodes>
            0 -1 405 -3.7804124876856804e-03</internalNodes>
          <leafValues>
            2.9769533872604370e-01 -8.1346288323402405e-02</leafValues></_>
        <_>
          <internalNodes>
            0 -1 73 -8.0235651694238186e-05</internalNodes>
          <leafValues>
            -2.0339925587177277e-01 1.2325406819581985e-01</leafValues></_>
        <_>
          <internalNodes>
            0 -1 79 -5.4597337730228901e-03</internalNodes>
          <leafValues>
            4.8433554172515869e-01 -5.5064607411623001e-02</leafValues></_>
        <_>
          <internalNodes>
            0 -1 86 1.1481145520519931e-05</internalNodes>
          <leafValues>
            -1.4108087122440338e-01 1.8611672520637512e-01</leafValues></_>
        <_>
          <internalNodes>
            0 -1 11 1.7347376560792327e-03</internalNodes>
          <leafValues>
            6.3082039356231689e-02 -3.9997258782386780e-01</leafValues></_>
        <_>
          <internalNodes>
            0 -1 125 2.7830074541270733e-03</internalNodes>
          <leafValues>
            -1.2205041944980621e-01 2.0605452358722687e-01</leafValues></_>
        <_>
          <internalNodes>
            0 -1 322 -3.7535055889748037e-04</internalNodes>
          <leafValues>
            2.4534484744071960e-01 -1.0331831872463226e-01</leafValues></_>
        <_>
          <internalNodes>
            0 -1 201 -1.6045065596699715e-02</internalNodes>
          <leafValues>
            6.9167339801788330e-01 -3.4543037414550781e-02</leafValues></_>
        <_>
          <internalNodes>
            0 -1 45 2.3461310192942619e-03</internalNodes>
          <leafValues>
            5.5622141808271408e-02 -5.0159430503845215e-01</leafValues></_>
        <_>
          <internalNodes>
            0 -1 256 1.8036521505564451e-03</internalNodes>
          <leafValues>
            -1.1592952907085419e-01 2.2857435047626495e-01</leafValues></_>
        <_>
          <internalNodes>
            0 -1 346 -3.6371027817949653e-04</internalNodes>
          <leafValues>
            -4.6432790160179138e-01 5.3069174289703369e-02</leafValues></_>
        <_>
          <internalNodes>
            0 -1 328 -1.1715105756593402e-05</internalNodes>
          <leafValues>
            1.6703161597251892e-01 -1.4530874788761139e-01</leafValues></_>
        <_>
          <internalNodes>
            0 -1 104 9.8802624270319939e-03</internalNodes>
          <leafValues>
            5.3895149379968643e-02 -4.3306246399879456e-01</leafValues></_>
        <_>
          <internalNodes>
            0 -1 398 -1.1758420150727034e-03</internalNodes>
          <leafValues>
            3.5972633957862854e-01 -6.8060427904129028e-02</leafValues></_>
        <_>
          <internalNodes>
            0 -1 218 -1.3916965108364820e-03</internalNodes>
          <leafValues>
            2.8536501526832581e-01 -7.9861298203468323e-02</leafValues></_>
        <_>
          <internalNodes>
            0 -1 272 7.3438316583633423e-02</internalNodes>
          <leafValues>
            -8.0552212893962860e-02 2.9013463854789734e-01</leafValues></_></weakClassifiers></_>
    <!-- stage 10 -->
    <_>
      <maxWeakCount>46</maxWeakCount>
      <stageThreshold>-1.5819412469863892e+00</stageThreshold>
      <weakClassifiers>
        <_>
          <internalNodes>
            0 -1 38 -1.1626219376921654e-02</internalNodes>
          <leafValues>
            -4.6262824535369873e-01 -7.4573194980621338e-01</leafValues></_>
        <_>
          <internalNodes>
            0 -1 254 5.6424215435981750e-03</internalNodes>
          <leafValues>
            -3.5614073276519775e-01 1.3547875918447971e-02</leafValues></_>
        <_>
          <internalNodes>
            0 -1 418 -5.0171761540696025e-04</internalNodes>
          <leafValues>
            -3.7996697425842285e-01 7.1107313036918640e-02</leafValues></_>
        <_>
          <internalNodes>
            0 -1 116 1.0420539416372776e-02</internalNodes>
          <leafValues>
            -1.5247221291065216e-01 1.7205032706260681e-01</leafValues></_>
        <_>
          <internalNodes>
            0 -1 132 -3.0723936855792999e-02</internalNodes>
          <leafValues>
            3.0400136113166809e-01 -8.7358660995960236e-02</leafValues></_>
        <_>
          <internalNodes>
            0 -1 200 1.8390296027064323e-03</internalNodes>
          <leafValues>
            -7.0362366735935211e-02 4.4959285855293274e-01</leafValues></_>
        <_>
          <internalNodes>
            0 -1 364 -1.0327717661857605e-01</internalNodes>
          <leafValues>
            4.0514326095581055e-01 -4.3838772922754288e-02</leafValues></_>
        <_>
          <internalNodes>
            0 -1 2 -3.7607696140184999e-04</internalNodes>
          <leafValues>
            -2.3678486049175262e-01 1.1104564368724823e-01</leafValues></_>
        <_>
          <internalNodes>
            0 -1 2 5.7778146583586931e-04</internalNodes>
          <leafValues>
            1.1105004698038101e-01 -2.6576930284500122e-01</leafValues></_>
        <_>
          <internalNodes>
            0 -1 177 -6.8135615438222885e-03</internalNodes>
          <leafValues>
            2.7143278717994690e-01 -9.6968665719032288e-02</leafValues></_>
        <_>
          <internalNodes>
            0 -1 223 1.2124061868235003e-05</internalNodes>
          <leafValues>
            -1.5972834825515747e-01 1.5977965295314789e-01</leafValues></_>
        <_>
          <internalNodes>
            0 -1 53 4.0251185419037938e-04</internalNodes>
          <leafValues>
            7.8075580298900604e-02 -3.2833132147789001e-01</leafValues></_>
        <_>
          <internalNodes>
            0 -1 239 -3.3025350421667099e-03</internalNodes>
          <leafValues>
            3.4268948435783386e-01 -7.5055770576000214e-02</leafValues></_>
        <_>
          <internalNodes>
            0 -1 380 -2.3163808509707451e-03</internalNodes>
          <leafValues>
            -5.2607780694961548e-01 5.0702810287475586e-02</leafValues></_>
        <_>
          <internalNodes>
            0 -1 255 -1.4361189678311348e-03</internalNodes>
          <leafValues>
            4.0250384807586670e-01 -7.9789385199546814e-02</leafValues></_>
        <_>
          <internalNodes>
            0 -1 432 8.0649768933653831e-03</internalNodes>
          <leafValues>
            4.0649905800819397e-02 -6.6690796613693237e-01</leafValues></_>
        <_>
          <internalNodes>
            0 -1 77 2.0340364426374435e-03</internalNodes>
          <leafValues>
            -9.2734433710575104e-02 2.7945035696029663e-01</leafValues></_>
        <_>
          <internalNodes>
            0 -1 40 7.2427722625434399e-04</internalNodes>
          <leafValues>
            7.1412213146686554e-02 -3.5918480157852173e-01</leafValues></_>
        <_>
          <internalNodes>
            0 -1 36 -2.8539113700389862e-03</internalNodes>
          <leafValues>
            -3.5377350449562073e-01 6.7831978201866150e-02</leafValues></_>
        <_>
          <internalNodes>
            0 -1 200 -2.1809199824929237e-03</internalNodes>
          <leafValues>
            4.2028778791427612e-01 -6.2643662095069885e-02</leafValues></_>
        <_>
          <internalNodes>
            0 -1 128 5.2314035594463348e-02</internalNodes>
          <leafValues>
            5.0670962780714035e-02 -5.2109718322753906e-01</leafValues></_>
        <_>
          <internalNodes>
            0 -1 222 -5.6350524537265301e-03</internalNodes>
          <leafValues>
            2.1927450597286224e-01 -1.0731609910726547e-01</leafValues></_>
        <_>
          <internalNodes>
            0 -1 51 -4.6412837691605091e-03</internalNodes>
          <leafValues>
            -4.7464251518249512e-01 4.8700220882892609e-02</leafValues></_>
        <_>
          <internalNodes>
            0 -1 55 3.5103447735309601e-02</internalNodes>
          <leafValues>
            -8.3307094871997833e-02 3.4061741828918457e-01</leafValues></_>
        <_>
          <internalNodes>
            0 -1 417 -1.1481145520519931e-05</internalNodes>
          <leafValues>
            2.2010420262813568e-01 -1.0632260143756866e-01</leafValues></_>
        <_>
          <internalNodes>
            0 -1 339 -2.6830036193132401e-02</internalNodes>
          <leafValues>
            2.8324297070503235e-01 -9.0715020895004272e-02</leafValues></_>
        <_>
          <internalNodes>
            0 -1 369 5.8431804180145264e-02</internalNodes>
          <leafValues>
            3.8276650011539459e-02 -7.6944208145141602e-01</leafValues></_>
        <_>
          <internalNodes>
            0 -1 374 -1.3181705027818680e-02</internalNodes>
          <leafValues>
            2.5313824415206909e-01 -1.1110725998878479e-01</leafValues></_>
        <_>
          <internalNodes>
            0 -1 423 -2.5071904063224792e-02</internalNodes>
          <leafValues>
            -6.2479239702224731e-01 4.7262307256460190e-02</leafValues></_>
        <_>
          <internalNodes>
            0 -1 345 1.4911172911524773e-03</internalNodes>
          <leafValues>
            5.4208576679229736e-02 -4.2179113626480103e-01</leafValues></_>
        <_>
          <internalNodes>
            0 -1 321 -1.0657997336238623e-03</internalNodes>
          <leafValues>
            2.8722432255744934e-01 -9.8647050559520721e-02</leafValues></_>
        <_>
          <internalNodes>
            0 -1 321 1.1040729004889727e-03</internalNodes>
          <leafValues>
            -9.0049199759960175e-02 2.8879588842391968e-01</leafValues></_>
        <_>
          <internalNodes>
            0 -1 454 -4.9232988385483623e-04</internalNodes>
          <leafValues>
            -3.6833730340003967e-01 7.3050208389759064e-02</leafValues></_>
        <_>
          <internalNodes>
            0 -1 224 -2.5537086912663653e-05</internalNodes>
          <leafValues>
            1.3675022125244141e-01 -1.7884644865989685e-01</leafValues></_>
        <_>
          <internalNodes>
            0 -1 152 -9.9776931107044220e-02</internalNodes>
          <leafValues>
            -8.0843347311019897e-01 3.1074393540620804e-02</leafValues></_>
        <_>
          <internalNodes>
            0 -1 228 -2.1689010318368673e-03</internalNodes>
          <leafValues>
            3.4817272424697876e-01 -8.4988564252853394e-02</leafValues></_>
        <_>
          <internalNodes>
            0 -1 14 -2.4410098791122437e-02</internalNodes>
          <leafValues>
            2.7190804481506348e-01 -9.4527855515480042e-02</leafValues></_>
        <_>
          <internalNodes>
            0 -1 129 1.3488182958099060e-05</internalNodes>
          <leafValues>
            -1.7094317078590393e-01 1.8212217092514038e-01</leafValues></_>
        <_>
          <internalNodes>
            0 -1 130 2.9453792376443744e-04</internalNodes>
          <leafValues>
            -1.2976099550724030e-01 2.0769199728965759e-01</leafValues></_>
        <_>
          <internalNodes>
            0 -1 212 3.5511841997504234e-04</internalNodes>
          <leafValues>
            1.1653800308704376e-01 -1.9983348250389099e-01</leafValues></_>
        <_>
          <internalNodes>
            0 -1 91 1.4668662101030350e-02</internalNodes>
          <leafValues>
            2.9695766046643257e-02 -7.6955246925354004e-01</leafValues></_>
        <_>
          <internalNodes>
            0 -1 133 -9.8565919324755669e-04</internalNodes>
          <leafValues>
            3.5425391793251038e-01 -7.0997357368469238e-02</leafValues></_>
        <_>
          <internalNodes>
            0 -1 221 -1.2124061868235003e-05</internalNodes>
          <leafValues>
            1.4813785254955292e-01 -1.5740822255611420e-01</leafValues></_>
        <_>
          <internalNodes>
            0 -1 175 -7.5144879519939423e-03</internalNodes>
          <leafValues>
            3.2688689231872559e-01 -7.1991808712482452e-02</leafValues></_>
        <_>
          <internalNodes>
            0 -1 284 -9.2768017202615738e-03</internalNodes>
          <leafValues>
            1.5311233699321747e-01 -1.5157462656497955e-01</leafValues></_>
        <_>
          <internalNodes>
            0 -1 209 -1.2149440590292215e-03</internalNodes>
          <leafValues>
            -6.9259297847747803e-01 3.3413469791412354e-02</leafValues></_></weakClassifiers></_>
    <!-- stage 11 -->
    <_>
      <maxWeakCount>42</maxWeakCount>
      <stageThreshold>-1.4527680873870850e+00</stageThreshold>
      <weakClassifiers>
        <_>
          <internalNodes>
            0 -1 241 -3.4792259335517883e-02</internalNodes>
          <leafValues>
            3.7500000000000000e-01 -6.3851350545883179e-01</leafValues></_>
        <_>
          <internalNodes>
            0 -1 24 -1.1171627789735794e-02</internalNodes>
          <leafValues>
            1.1728382110595703e-01 -2.6011556386947632e-01</leafValues></_>
        <_>
          <internalNodes>
            0 -1 291 4.9555377336218953e-04</internalNodes>
          <leafValues>
            5.7956535369157791e-02 -5.2782398462295532e-01</leafValues></_>
        <_>
          <internalNodes>
            0 -1 291 4.9353798385709524e-04</internalNodes>
          <leafValues>
            -9.4393797917291522e-04 9.5906293392181396e-01</leafValues></_>
        <_>
          <internalNodes>
            0 -1 291 4.7528004506602883e-04</internalNodes>
          <leafValues>
            1.2565091019496322e-03 -7.6661700010299683e-01</leafValues></_>
        <_>
          <internalNodes>
            0 -1 292 -1.0305054020136595e-03</internalNodes>
          <leafValues>
            -6.0721689462661743e-01 5.4284539073705673e-02</leafValues></_>
        <_>
          <internalNodes>
            0 -1 74 -6.4936950802803040e-02</internalNodes>
          <leafValues>
            2.8555747866630554e-01 -9.0036772191524506e-02</leafValues></_>
        <_>
          <internalNodes>
            0 -1 404 -1.3828873634338379e-03</internalNodes>
          <leafValues>
            3.5014691948890686e-01 -8.1342659890651703e-02</leafValues></_>
        <_>
          <internalNodes>
            0 -1 402 1.4356570318341255e-03</internalNodes>
          <leafValues>
            -9.1892659664154053e-02 3.1800520420074463e-01</leafValues></_>
        <_>
          <internalNodes>
            0 -1 48 -6.3037825748324394e-03</internalNodes>
          <leafValues>
            -4.7851654887199402e-01 5.8046102523803711e-02</leafValues></_>
        <_>
          <internalNodes>
            0 -1 162 -4.9197552725672722e-03</internalNodes>
          <leafValues>
            2.2319561243057251e-01 -1.2774953246116638e-01</leafValues></_>
        <_>
          <internalNodes>
            0 -1 134 -4.6822723001241684e-02</internalNodes>
          <leafValues>
            2.8062391281127930e-01 -1.1678590625524521e-01</leafValues></_>
        <_>
          <internalNodes>
            0 -1 199 1.2446038454072550e-05</internalNodes>
          <leafValues>
            -1.8236000835895538e-01 2.0351542532444000e-01</leafValues></_>
        <_>
          <internalNodes>
            0 -1 170 8.3574373275041580e-04</internalNodes>
          <leafValues>
            6.3297845423221588e-02 -3.9041438698768616e-01</leafValues></_>
        <_>
          <internalNodes>
            0 -1 148 -1.7529662698507309e-02</internalNodes>
          <leafValues>
            2.5740772485733032e-01 -8.9655466377735138e-02</leafValues></_>
        <_>
          <internalNodes>
            0 -1 166 -1.7051149625331163e-03</internalNodes>
          <leafValues>
            3.4999096393585205e-01 -8.8335961103439331e-02</leafValues></_>
        <_>
          <internalNodes>
            0 -1 452 7.6668616384267807e-04</internalNodes>
          <leafValues>
            7.6954208314418793e-02 -4.5195931196212769e-01</leafValues></_>
        <_>
          <internalNodes>
            0 -1 452 -1.1204644106328487e-03</internalNodes>
          <leafValues>
            -5.6403201818466187e-01 3.8785196840763092e-02</leafValues></_>
        <_>
          <internalNodes>
            0 -1 182 2.5409250520169735e-03</internalNodes>
          <leafValues>
            -9.0869896113872528e-02 3.2472905516624451e-01</leafValues></_>
        <_>
          <internalNodes>
            0 -1 124 -2.1303391456604004e-01</internalNodes>
          <leafValues>
            3.6852458119392395e-01 -8.3321332931518555e-02</leafValues></_>
        <_>
          <internalNodes>
            0 -1 145 -1.6198430210351944e-02</internalNodes>
          <leafValues>
            2.2194842994213104e-01 -1.2881629168987274e-01</leafValues></_>
        <_>
          <internalNodes>
            0 -1 205 -7.6977452263236046e-03</internalNodes>
          <leafValues>
            3.4680932760238647e-01 -9.4351999461650848e-02</leafValues></_>
        <_>
          <internalNodes>
            0 -1 16 9.7693363204598427e-03</internalNodes>
          <leafValues>
            -1.0745944082736969e-01 2.9734277725219727e-01</leafValues></_>
        <_>
          <internalNodes>
            0 -1 170 -5.2522454643622041e-04</internalNodes>
          <leafValues>
            -2.9008015990257263e-01 9.6027344465255737e-02</leafValues></_>
        <_>
          <internalNodes>
            0 -1 281 3.2749003730714321e-03</internalNodes>
          <leafValues>
            -5.9773366898298264e-02 5.3476285934448242e-01</leafValues></_>
        <_>
          <internalNodes>
            0 -1 10 2.6050903834402561e-03</internalNodes>
          <leafValues>
            6.7303903400897980e-02 -4.2458850145339966e-01</leafValues></_>
        <_>
          <internalNodes>
            0 -1 4 -1.3089261949062347e-01</internalNodes>
          <leafValues>
            3.8632261753082275e-01 -7.6694987714290619e-02</leafValues></_>
        <_>
          <internalNodes>
            0 -1 191 -4.9899881705641747e-03</internalNodes>
          <leafValues>
            2.3690678179264069e-01 -1.1634162068367004e-01</leafValues></_>
        <_>
          <internalNodes>
            0 -1 2 -3.4456129651516676e-04</internalNodes>
          <leafValues>
            -2.2906640172004700e-01 1.1151135712862015e-01</leafValues></_>
        <_>
          <internalNodes>
            0 -1 446 4.4605467701330781e-04</internalNodes>
          <leafValues>
            7.7653132379055023e-02 -3.1530681252479553e-01</leafValues></_>
        <_>
          <internalNodes>
            0 -1 244 3.9045982994139194e-03</internalNodes>
          <leafValues>
            -7.1828000247478485e-02 3.5824215412139893e-01</leafValues></_>
        <_>
          <internalNodes>
            0 -1 340 -1.0833148553501815e-04</internalNodes>
          <leafValues>
            1.6033045947551727e-01 -1.6861434280872345e-01</leafValues></_>
        <_>
          <internalNodes>
            0 -1 230 -2.0002715289592743e-02</internalNodes>
          <leafValues>
            5.9393227100372314e-01 -4.4090222567319870e-02</leafValues></_>
        <_>
          <internalNodes>
            0 -1 103 -4.5809047296643257e-03</internalNodes>
          <leafValues>
            2.3316918313503265e-01 -1.0721982270479202e-01</leafValues></_>
        <_>
          <internalNodes>
            0 -1 446 -1.2044491013512015e-03</internalNodes>
          <leafValues>
            -6.2885731458663940e-01 4.2957719415426254e-02</leafValues></_>
        <_>
          <internalNodes>
            0 -1 253 -5.8741103857755661e-03</internalNodes>
          <leafValues>
            2.8275060653686523e-01 -9.5810472965240479e-02</leafValues></_>
        <_>
          <internalNodes>
            0 -1 352 -3.8479170762002468e-03</internalNodes>
          <leafValues>
            1.5878063440322876e-01 -1.6818678379058838e-01</leafValues></_>
        <_>
          <internalNodes>
            0 -1 61 -1.8503991886973381e-03</internalNodes>
          <leafValues>
            -5.7095181941986084e-01 4.4361628592014313e-02</leafValues></_>
        <_>
          <internalNodes>
            0 -1 279 9.9476817995309830e-03</internalNodes>
          <leafValues>
            -8.5990905761718750e-02 3.3415278792381287e-01</leafValues></_>
        <_>
          <internalNodes>
            0 -1 287 -4.2308699339628220e-03</internalNodes>
          <leafValues>
            2.5973263382911682e-01 -1.0857972502708435e-01</leafValues></_>
        <_>
          <internalNodes>
            0 -1 232 1.1089903637184761e-05</internalNodes>
          <leafValues>
            -1.3222520053386688e-01 2.0651113986968994e-01</leafValues></_>
        <_>
          <internalNodes>
            0 -1 99 -1.1089903637184761e-05</internalNodes>
          <leafValues>
            1.7432782053947449e-01 -1.4166511595249176e-01</leafValues></_></weakClassifiers></_>
    <!-- stage 12 -->
    <_>
      <maxWeakCount>51</maxWeakCount>
      <stageThreshold>-1.5733639001846313e+00</stageThreshold>
      <weakClassifiers>
        <_>
          <internalNodes>
            0 -1 49 -1.0607326403260231e-02</internalNodes>
          <leafValues>
            -5.0068712234497070e-01 -7.2869700193405151e-01</leafValues></_>
        <_>
          <internalNodes>
            0 -1 283 -1.5019536018371582e-02</internalNodes>
          <leafValues>
            6.7678742110729218e-02 -2.6444229483604431e-01</leafValues></_>
        <_>
          <internalNodes>
            0 -1 410 7.6604983769357204e-04</internalNodes>
          <leafValues>
            4.9172766506671906e-02 -4.5885130763053894e-01</leafValues></_>
        <_>
          <internalNodes>
            0 -1 298 -3.6297957412898540e-03</internalNodes>
          <leafValues>
            4.1083240509033203e-01 -3.2873414456844330e-02</leafValues></_>
        <_>
          <internalNodes>
            0 -1 359 4.4939311919733882e-05</internalNodes>
          <leafValues>
            1.0426663607358932e-01 -2.1942739188671112e-01</leafValues></_>
        <_>
          <internalNodes>
            0 -1 155 -1.2396099045872688e-03</internalNodes>
          <leafValues>
            3.6142402887344360e-01 -7.8832767903804779e-02</leafValues></_>
        <_>
          <internalNodes>
            0 -1 360 -9.5072871772572398e-05</internalNodes>
          <leafValues>
            -2.1168142557144165e-01 1.5476019680500031e-01</leafValues></_>
        <_>
          <internalNodes>
            0 -1 361 -1.0789428051793948e-04</internalNodes>
          <leafValues>
            -2.1025831997394562e-01 1.0091880708932877e-01</leafValues></_>
        <_>
          <internalNodes>
            0 -1 154 7.8084552660584450e-04</internalNodes>
          <leafValues>
            -4.6195112168788910e-02 3.7101230025291443e-01</leafValues></_>
        <_>
          <internalNodes>
            0 -1 57 -4.5059894910082221e-04</internalNodes>
          <leafValues>
            -3.6283633112907410e-01 7.0154555141925812e-02</leafValues></_>
        <_>
          <internalNodes>
            0 -1 56 1.2963648259756155e-05</internalNodes>
          <leafValues>
            -1.3250908255577087e-01 2.0106644928455353e-01</leafValues></_>
        <_>
          <internalNodes>
            0 -1 404 -1.9530004356056452e-03</internalNodes>
          <leafValues>
            3.9480274915695190e-01 -6.1332467943429947e-02</leafValues></_>
        <_>
          <internalNodes>
            0 -1 290 1.6274647787213326e-03</internalNodes>
          <leafValues>
            6.9089181721210480e-02 -3.5142737627029419e-01</leafValues></_>
        <_>
          <internalNodes>
            0 -1 282 -4.1413218714296818e-03</internalNodes>
          <leafValues>
            3.7085247039794922e-01 -6.6395938396453857e-02</leafValues></_>
        <_>
          <internalNodes>
            0 -1 105 4.6887751668691635e-03</internalNodes>
          <leafValues>
            4.4868387281894684e-02 -5.5995547771453857e-01</leafValues></_>
        <_>
          <internalNodes>
            0 -1 390 -2.1553537226282060e-04</internalNodes>
          <leafValues>
            2.1316131949424744e-01 -1.0626213997602463e-01</leafValues></_>
        <_>
          <internalNodes>
            0 -1 390 1.1292742565274239e-03</internalNodes>
          <leafValues>
            -5.7723134756088257e-02 4.2752400040626526e-01</leafValues></_>
        <_>
          <internalNodes>
            0 -1 396 2.1934368123766035e-04</internalNodes>
          <leafValues>
            1.0466588288545609e-01 -2.4073222279548645e-01</leafValues></_>
        <_>
          <internalNodes>
            0 -1 236 -7.0131972432136536e-02</internalNodes>
          <leafValues>
            -8.2653588056564331e-01 2.6535438373684883e-02</leafValues></_>
        <_>
          <internalNodes>
            0 -1 412 -5.3811745601706207e-05</internalNodes>
          <leafValues>
            -1.8437041342258453e-01 1.1147574335336685e-01</leafValues></_>
        <_>
          <internalNodes>
            0 -1 207 1.2446038454072550e-05</internalNodes>
          <leafValues>
            -1.5802568197250366e-01 1.3704183697700500e-01</leafValues></_>
        <_>
          <internalNodes>
            0 -1 109 -5.9444364160299301e-03</internalNodes>
          <leafValues>
            3.4708103537559509e-01 -6.3680440187454224e-02</leafValues></_>
        <_>
          <internalNodes>
            0 -1 165 -1.2760326499119401e-03</internalNodes>
          <leafValues>
            3.8925889134407043e-01 -5.4014772176742554e-02</leafValues></_>
        <_>
          <internalNodes>
            0 -1 435 -6.7818298703059554e-04</internalNodes>
          <leafValues>
            -3.0032145977020264e-01 7.4887908995151520e-02</leafValues></_>
        <_>
          <internalNodes>
            0 -1 140 -2.0700491964817047e-02</internalNodes>
          <leafValues>
            2.3871585726737976e-01 -8.8100090622901917e-02</leafValues></_>
        <_>
          <internalNodes>
            0 -1 323 -8.8347739074379206e-04</internalNodes>
          <leafValues>
            3.1758883595466614e-01 -6.7576967179775238e-02</leafValues></_>
        <_>
          <internalNodes>
            0 -1 300 -1.1033967602998018e-03</internalNodes>
          <leafValues>
            -6.2354028224945068e-01 3.9137221872806549e-02</leafValues></_>
        <_>
          <internalNodes>
            0 -1 27 -4.1112895123660564e-03</internalNodes>
          <leafValues>
            3.4924820065498352e-01 -6.8862892687320709e-02</leafValues></_>
        <_>
          <internalNodes>
            0 -1 195 6.8358291173353791e-04</internalNodes>
          <leafValues>
            -7.8101098537445068e-02 2.8697383403778076e-01</leafValues></_>
        <_>
          <internalNodes>
            0 -1 107 -3.0091363936662674e-02</internalNodes>
          <leafValues>
            1.9983562827110291e-01 -1.1671184003353119e-01</leafValues></_>
        <_>
          <internalNodes>
            0 -1 87 1.0501096956431866e-02</internalNodes>
          <leafValues>
            4.7385871410369873e-02 -5.3006511926651001e-01</leafValues></_>
        <_>
          <internalNodes>
            0 -1 234 -1.2028123252093792e-02</internalNodes>
          <leafValues>
            2.4266859889030457e-01 -1.1050052195787430e-01</leafValues></_>
        <_>
          <internalNodes>
            0 -1 193 1.9773408770561218e-02</internalNodes>
          <leafValues>
            -9.6138045191764832e-02 3.1303688883781433e-01</leafValues></_>
        <_>
          <internalNodes>
            0 -1 263 1.4709513634443283e-02</internalNodes>
          <leafValues>
            -4.5815244317054749e-02 4.6767485141754150e-01</leafValues></_>
        <_>
          <internalNodes>
            0 -1 215 -2.0460182800889015e-02</internalNodes>
          <leafValues>
            2.2456882894039154e-01 -9.7845882177352905e-02</leafValues></_>
        <_>
          <internalNodes>
            0 -1 220 -4.4987932778894901e-03</internalNodes>
          <leafValues>
            2.1528561413288116e-01 -1.1737274378538132e-01</leafValues></_>
        <_>
          <internalNodes>
            0 -1 179 -1.5393838286399841e-02</internalNodes>
          <leafValues>
            1.8218129873275757e-01 -1.1965427547693253e-01</leafValues></_>
        <_>
          <internalNodes>
            0 -1 417 -5.9219344984740019e-04</internalNodes>
          <leafValues>
            -5.2219390869140625e-01 4.3363813310861588e-02</leafValues></_>
        <_>
          <internalNodes>
            0 -1 273 2.4033202789723873e-03</internalNodes>
          <leafValues>
            -1.1637896299362183e-01 2.0235194265842438e-01</leafValues></_>
        <_>
          <internalNodes>
            0 -1 308 7.4796095490455627e-02</internalNodes>
          <leafValues>
            3.3322140574455261e-02 -7.6394504308700562e-01</leafValues></_>
        <_>
          <internalNodes>
            0 -1 40 -5.4432859178632498e-04</internalNodes>
          <leafValues>
            -3.2394444942474365e-01 6.3705623149871826e-02</leafValues></_>
        <_>
          <internalNodes>
            0 -1 242 3.4284456633031368e-03</internalNodes>
          <leafValues>
            -6.6103681921958923e-02 3.4039574861526489e-01</leafValues></_>
        <_>
          <internalNodes>
            0 -1 171 -1.5265481546521187e-02</internalNodes>
          <leafValues>
            1.8909934163093567e-01 -1.1828564107418060e-01</leafValues></_>
        <_>
          <internalNodes>
            0 -1 153 1.5520335175096989e-02</internalNodes>
          <leafValues>
            -1.0851032286882401e-01 2.1782884001731873e-01</leafValues></_>
        <_>
          <internalNodes>
            0 -1 118 1.1143577467009891e-05</internalNodes>
          <leafValues>
            -1.3713842630386353e-01 1.6241247951984406e-01</leafValues></_>
        <_>
          <internalNodes>
            0 -1 118 -3.5538175143301487e-04</internalNodes>
          <leafValues>
            2.4417006969451904e-01 -9.0592376887798309e-02</leafValues></_>
        <_>
          <internalNodes>
            0 -1 443 -2.3524079006165266e-03</internalNodes>
          <leafValues>
            -3.3415922522544861e-01 6.7089669406414032e-02</leafValues></_>
        <_>
          <internalNodes>
            0 -1 442 1.6407205257564783e-03</internalNodes>
          <leafValues>
            7.2894275188446045e-02 -3.3263686299324036e-01</leafValues></_>
        <_>
          <internalNodes>
            0 -1 127 2.6401728391647339e-02</internalNodes>
          <leafValues>
            3.0497845262289047e-02 -6.7968082427978516e-01</leafValues></_>
        <_>
          <internalNodes>
            0 -1 26 -5.0436211749911308e-03</internalNodes>
          <leafValues>
            -4.9526247382164001e-01 4.0189485996961594e-02</leafValues></_>
        <_>
          <internalNodes>
            0 -1 415 -1.7634709365665913e-03</internalNodes>
          <leafValues>
            3.4610167145729065e-01 -6.6503271460533142e-02</leafValues></_></weakClassifiers></_>
    <!-- stage 13 -->
    <_>
      <maxWeakCount>54</maxWeakCount>
      <stageThreshold>-1.6371245384216309e+00</stageThreshold>
      <weakClassifiers>
        <_>
          <internalNodes>
            0 -1 46 7.1815336123108864e-03</internalNodes>
          <leafValues>
            -7.1207010746002197e-01 -4.8418757319450378e-01</leafValues></_>
        <_>
          <internalNodes>
            0 -1 302 1.6164588741958141e-03</internalNodes>
          <leafValues>
            -4.6642586588859558e-02 -4.6055892109870911e-01</leafValues></_>
        <_>
          <internalNodes>
            0 -1 326 7.6467711478471756e-03</internalNodes>
          <leafValues>
            -1.7880767583847046e-01 2.0038774609565735e-01</leafValues></_>
        <_>
          <internalNodes>
            0 -1 121 -1.9782991148531437e-04</internalNodes>
          <leafValues>
            -2.2481741011142731e-01 1.0931093245744705e-01</leafValues></_>
        <_>
          <internalNodes>
            0 -1 307 5.4525205632671714e-04</internalNodes>
          <leafValues>
            -8.2240298390388489e-02 3.2523387670516968e-01</leafValues></_>
        <_>
          <internalNodes>
            0 -1 210 -1.2383426656015217e-04</internalNodes>
          <leafValues>
            -2.0033611357212067e-01 1.2160111963748932e-01</leafValues></_>
        <_>
          <internalNodes>
            0 -1 63 -3.0895506963133812e-02</internalNodes>
          <leafValues>
            4.6530511975288391e-01 -3.9482187479734421e-02</leafValues></_>
        <_>
          <internalNodes>
            0 -1 307 -4.3949618702754378e-04</internalNodes>
          <leafValues>
            2.5762197375297546e-01 -1.0359882563352585e-01</leafValues></_>
        <_>
          <internalNodes>
            0 -1 445 1.4043985866010189e-03</internalNodes>
          <leafValues>
            1.1386124044656754e-01 -2.7973505854606628e-01</leafValues></_>
        <_>
          <internalNodes>
            0 -1 303 -1.3696756958961487e-01</internalNodes>
          <leafValues>
            -7.2024613618850708e-01 2.2523714229464531e-02</leafValues></_>
        <_>
          <internalNodes>
            0 -1 58 -1.1841144878417253e-03</internalNodes>
          <leafValues>
            -3.7584346532821655e-01 6.3397526741027832e-02</leafValues></_>
        <_>
          <internalNodes>
            0 -1 251 -1.6631751786917448e-03</internalNodes>
          <leafValues>
            2.9376000165939331e-01 -9.5541760325431824e-02</leafValues></_>
        <_>
          <internalNodes>
            0 -1 252 3.3607764635235071e-03</internalNodes>
          <leafValues>
            -8.4011614322662354e-02 3.7544801831245422e-01</leafValues></_>
        <_>
          <internalNodes>
            0 -1 100 8.9503510389477015e-04</internalNodes>
          <leafValues>
            5.2653163671493530e-02 -4.8776340484619141e-01</leafValues></_>
        <_>
          <internalNodes>
            0 -1 237 -1.0435403324663639e-02</internalNodes>
          <leafValues>
            -6.4833074808120728e-01 3.0349381268024445e-02</leafValues></_>
        <_>
          <internalNodes>
            0 -1 188 5.0177273806184530e-04</internalNodes>
          <leafValues>
            1.0313703119754791e-01 -2.2445207834243774e-01</leafValues></_>
        <_>
          <internalNodes>
            0 -1 231 -4.3443772010505199e-03</internalNodes>
          <leafValues>
            -5.5072146654129028e-01 5.2315454930067062e-02</leafValues></_>
        <_>
          <internalNodes>
            0 -1 368 2.2915668785572052e-02</internalNodes>
          <leafValues>
            -8.8648445904254913e-02 3.3430272340774536e-01</leafValues></_>
        <_>
          <internalNodes>
            0 -1 158 3.3660517074167728e-03</internalNodes>
          <leafValues>
            -8.9733406901359558e-02 2.8896456956863403e-01</leafValues></_>
        <_>
          <internalNodes>
            0 -1 438 4.1982089169323444e-03</internalNodes>
          <leafValues>
            7.7797010540962219e-02 -3.3385103940963745e-01</leafValues></_>
        <_>
          <internalNodes>
            0 -1 110 6.1237288173288107e-04</internalNodes>
          <leafValues>
            -8.6483739316463470e-02 3.0282789468765259e-01</leafValues></_>
        <_>
          <internalNodes>
            0 -1 88 4.1897711344063282e-03</internalNodes>
          <leafValues>
            -6.9205664098262787e-02 3.9730265736579895e-01</leafValues></_>
        <_>
          <internalNodes>
            0 -1 382 -2.2983223199844360e-02</internalNodes>
          <leafValues>
            2.8694674372673035e-01 -9.1291025280952454e-02</leafValues></_>
        <_>
          <internalNodes>
            0 -1 21 -1.0718256235122681e-01</internalNodes>
          <leafValues>
            -2.9455766081809998e-01 8.6102686822414398e-02</leafValues></_>
        <_>
          <internalNodes>
            0 -1 9 1.9564650952816010e-02</internalNodes>
          <leafValues>
            1.3282562792301178e-01 -1.9087211787700653e-01</leafValues></_>
        <_>
          <internalNodes>
            0 -1 196 -2.6017710566520691e-02</internalNodes>
          <leafValues>
            2.5991842150688171e-01 -9.2164017260074615e-02</leafValues></_>
        <_>
          <internalNodes>
            0 -1 258 2.0860615186393261e-03</internalNodes>
          <leafValues>
            -9.4057753682136536e-02 2.6392707228660583e-01</leafValues></_>
        <_>
          <internalNodes>
            0 -1 146 2.9835731256753206e-03</internalNodes>
          <leafValues>
            -8.6947344243526459e-02 2.9841193556785583e-01</leafValues></_>
        <_>
          <internalNodes>
            0 -1 31 4.5573301613330841e-02</internalNodes>
          <leafValues>
            4.3767072260379791e-02 -6.0230189561843872e-01</leafValues></_>
        <_>
          <internalNodes>
            0 -1 113 2.8235843637958169e-04</internalNodes>
          <leafValues>
            -1.1614017188549042e-01 2.2125492990016937e-01</leafValues></_>
        <_>
          <internalNodes>
            0 -1 90 -5.0461338832974434e-04</internalNodes>
          <leafValues>
            2.4020332098007202e-01 -1.2007202953100204e-01</leafValues></_>
        <_>
          <internalNodes>
            0 -1 453 1.5095302369445562e-03</internalNodes>
          <leafValues>
            6.7128643393516541e-02 -3.9890685677528381e-01</leafValues></_>
        <_>
          <internalNodes>
            0 -1 126 1.2157173827290535e-02</internalNodes>
          <leafValues>
            -8.3486892282962799e-02 3.3261710405349731e-01</leafValues></_>
        <_>
          <internalNodes>
            0 -1 20 -3.1216830015182495e-02</internalNodes>
          <leafValues>
            1.8586015701293945e-01 -1.4516295492649078e-01</leafValues></_>
        <_>
          <internalNodes>
            0 -1 169 8.9286395814269781e-04</internalNodes>
          <leafValues>
            4.5310597866773605e-02 -5.6779891252517700e-01</leafValues></_>
        <_>
          <internalNodes>
            0 -1 304 -4.7113575041294098e-02</internalNodes>
          <leafValues>
            -7.4903512001037598e-01 2.7378112077713013e-02</leafValues></_>
        <_>
          <internalNodes>
            0 -1 227 -2.7797745133284479e-05</internalNodes>
          <leafValues>
            1.4354419708251953e-01 -1.6454553604125977e-01</leafValues></_>
        <_>
          <internalNodes>
            0 -1 225 1.0255718370899558e-03</internalNodes>
          <leafValues>
            -1.0612819343805313e-01 2.3498778045177460e-01</leafValues></_>
        <_>
          <internalNodes>
            0 -1 98 1.0596556589007378e-02</internalNodes>
          <leafValues>
            -1.5750771760940552e-01 1.5910837054252625e-01</leafValues></_>
        <_>
          <internalNodes>
            0 -1 393 3.2053049653768539e-03</internalNodes>
          <leafValues>
            -9.9179491400718689e-02 2.5045305490493774e-01</leafValues></_>
        <_>
          <internalNodes>
            0 -1 332 -6.4814776182174683e-02</internalNodes>
          <leafValues>
            -7.2597664594650269e-01 4.0559463202953339e-02</leafValues></_>
        <_>
          <internalNodes>
            0 -1 430 -2.3263711773324758e-04</internalNodes>
          <leafValues>
            -1.8612444400787354e-01 1.2091648578643799e-01</leafValues></_>
        <_>
          <internalNodes>
